{"layer_1.weight": [[0.08709072321653366, 0.08077901601791382, -0.02336745522916317, 0.04414868727326393, -0.10018163174390793, -0.0338573083281517, -0.03198571875691414, -0.09200821816921234, 0.11887380480766296, -0.008140147663652897, -0.1438031941652298, 0.06676731258630753, -0.020429959520697594, -0.11306349188089371, -0.05388839542865753, 0.09632718563079834, -0.13106630742549896, -0.007814387790858746, 0.057458002120256424, -0.024664752185344696, -0.06139060854911804, 0.07112900912761688, -0.06647523492574692, -0.09480871260166168, 0.07414007186889648, -0.0056091235019266605, -0.11654512584209442, 0.010525599122047424, -0.022627077996730804, 0.005152538418769836, 0.030714726075530052, 0.06548499315977097, 0.03173666447401047, 0.0022773873060941696, 0.0992729589343071, 0.11920793354511261, 0.05020080879330635, -0.0006397701217792928, -0.031486187130212784, -0.09884529560804367, 0.08093917369842529, 0.08114634454250336, -0.025677764788269997, 0.02406296320259571, -0.034883853048086166, 0.031490955501794815, -0.06329873204231262, -0.0636187195777893, 0.015623335726559162, -0.054021622985601425, 0.005088926292955875, -0.10931405425071716, -0.04657718539237976, -0.0573757030069828, 0.062243711203336716, -0.0004092036106158048, 0.09347671270370483, 0.003318744245916605, -0.06311024725437164, -0.056456323713064194], [-0.009033093228936195, -0.017359217628836632, -0.1164189949631691, -0.13294617831707, -0.03099280409514904, 0.0797492042183876, -0.05522039160132408, 0.04646511375904083, -0.03629779815673828, 0.09842352569103241, -0.04300110787153244, 0.1060108095407486, 0.11144772171974182, 0.018820246681571007, 0.10151766985654831, 0.012093684636056423, -0.09885674715042114, 0.01590612716972828, 0.056407514959573746, -0.12209337949752808, -0.09743712842464447, -0.04419547691941261, 0.14436399936676025, -0.10112394392490387, 0.07076482474803925, 0.10945785790681839, -0.006026111543178558, 0.00757615827023983, -0.005068571772426367, 0.10032567381858826, -0.06832899153232574, -0.036361001431941986, -0.08707704395055771, 0.020819662138819695, 0.029645366594195366, 0.018147490918636322, 0.005248203873634338, 0.1321791559457779, -0.023287013173103333, 0.04984772205352783, -0.0007157218060456216, 0.08332142978906631, 0.07600238919258118, -0.051213137805461884, -0.01985514722764492, -0.11495762318372726, 0.040237341076135635, 0.000452084350399673, 0.011120595969259739, 0.0004039072955492884, -0.10724437981843948, 0.06726495921611786, -0.07361792027950287, -0.028359122574329376, 0.09084707498550415, -0.004026004113256931, 0.12130101770162582, 0.07922257483005524, 0.018871774896979332, -0.0022297953255474567], [-0.04331304132938385, 0.04340139031410217, -0.046374402940273285, -0.05634200945496559, -0.09727613627910614, 0.013598429970443249, -0.07865407317876816, 0.03341643139719963, -0.039752297103405, 0.002992886584252119, 0.08400344848632812, -0.0248443391174078, 0.07182963937520981, -0.09032304584980011, 0.004521839786320925, 0.11630876362323761, 0.056753046810626984, 0.09500574320554733, 0.0638616532087326, -0.06550633162260056, 0.14062415063381195, -0.02519373409450054, -0.05004149675369263, 0.08351913839578629, -0.06569606065750122, 0.08008790016174316, 0.02556511014699936, 0.04829831421375275, -0.08520398288965225, -0.09976760298013687, 0.09474033117294312, 0.03616545349359512, -0.0044192844070494175, 0.08965681493282318, -0.033389534801244736, -0.03194495663046837, -0.026982568204402924, 0.1006304919719696, 0.12088273465633392, 0.08200111985206604, 0.014616512693464756, 0.03416985645890236, -0.041607003659009933, -0.09521196782588959, 0.0865982174873352, 0.011744075454771519, 0.030867239460349083, -0.05286919325590134, -0.003164465306326747, -0.12017978727817535, -0.06899270415306091, 0.13242104649543762, -0.04924750328063965, -0.057538099586963654, -0.12209971249103546, 0.12298473715782166, -0.011157064698636532, -0.06015264242887497, -0.08869641274213791, 0.011500300839543343], [-0.11350344121456146, 0.008188803680241108, 0.1517699807882309, -0.007898449897766113, 0.09569025039672852, 0.05132858455181122, 0.04526541754603386, 0.11269719898700714, 0.08813241869211197, -0.06915649771690369, -0.026919862255454063, 0.07153533399105072, -0.013871647417545319, -0.01948860101401806, 0.07571857422590256, -0.06563536077737808, -0.046295661479234695, 0.04764821007847786, 0.09448516368865967, 0.014650027267634869, 0.05286245420575142, 0.01049770787358284, 0.22957147657871246, -0.03746359050273895, 0.10376168042421341, -0.004337296821177006, -0.02038220502436161, 0.15157273411750793, -0.008998382836580276, 0.14414724707603455, -0.009184343740344048, -0.028853513300418854, -0.1419258564710617, -0.08115880936384201, 0.006659703329205513, 0.0012462951708585024, -0.02392861433327198, -0.00401988485828042, -0.08209904283285141, -0.05971110984683037, -0.1266554594039917, 0.15147638320922852, -0.20388630032539368, 0.09281150996685028, -0.08357401937246323, 0.015207617543637753, 0.046160344034433365, -0.049385301768779755, -0.04486674815416336, -0.0014512294437736273, -0.04561910778284073, 0.17195607721805573, -0.03860367834568024, -0.07061767578125, -0.15226924419403076, -0.029333125799894333, 0.07004787772893906, 0.013596570119261742, 0.1405012458562851, 0.05419481545686722], [0.13725364208221436, -0.07540275156497955, -0.07474390417337418, -0.049880124628543854, -0.11474023014307022, -0.024882681667804718, -0.10878206044435501, 0.0519474633038044, -0.05171528831124306, -0.0682760551571846, -0.1508750319480896, -0.024692552164196968, -0.005679181311279535, -0.10543981939554214, 0.02032376267015934, -0.12010958045721054, -0.12691836059093475, -0.11928565055131912, -0.014915307983756065, -0.07859231531620026, 0.002140909666195512, 0.035735104233026505, 0.12463051080703735, 0.028351208195090294, 0.005358424037694931, -0.07607269287109375, -0.008208218961954117, -0.011964692734181881, -0.0008538344409316778, -0.06887801736593246, -0.031036900356411934, 0.017257167026400566, -0.004953240044414997, -0.1290145069360733, 0.0453408844769001, 0.09849471598863602, 0.040683314204216, -0.030197108164429665, -0.035570643842220306, 0.007993727922439575, 0.056579094380140305, 0.10436687618494034, 0.10586455464363098, 0.0935065895318985, 0.09402866661548615, 0.15565629303455353, 0.08105860650539398, -0.01410088874399662, -0.06627336889505386, 0.10265465080738068, 0.11608775705099106, 0.09482862055301666, 0.06777922064065933, -0.011351851746439934, 0.11855558305978775, 0.14150941371917725, 0.1350902020931244, 0.0257005225867033, 0.12719523906707764, 0.1519622504711151], [0.0008619589498266578, -0.059376105666160583, -0.13142506778240204, -0.026900796219706535, 0.11596683412790298, 0.08522012829780579, -0.10485769063234329, 0.03248484060168266, 0.05175565928220749, -0.12094394862651825, -0.06754777580499649, -0.0435035414993763, -0.09810222685337067, -0.05610235407948494, -0.06677472591400146, -0.024487361311912537, -0.0959385335445404, -0.1282183676958084, 0.015244204550981522, 0.08358918875455856, -0.04062629118561745, 0.07322999089956284, -0.1128409206867218, 0.10055725276470184, -0.004270375706255436, -0.014183382503688335, -0.03095739707350731, 0.10329446196556091, 0.11625273525714874, 0.12121643871068954, 0.00699969008564949, -0.06633062660694122, 0.04735415428876877, -0.11717372387647629, 0.029558619484305382, -0.09066656976938248, 0.07505965977907181, -0.020261427387595177, 0.06456494331359863, -0.05307583138346672, -0.020149875432252884, -0.13140340149402618, -0.08710332959890366, 0.0027456930838525295, 0.06067736819386482, -0.009633347392082214, -0.12854617834091187, -0.09150777757167816, 0.09607486426830292, -0.10463861376047134, 0.117327980697155, -0.04564150795340538, -0.07099059224128723, -0.010030183009803295, 0.005390590522438288, -0.08596830815076828, 0.1218453124165535, 0.0369945652782917, 0.09992922842502594, 0.08355317264795303], [-0.0954401046037674, -0.04433238506317139, -0.09363370388746262, 0.08126645535230637, -0.027937471866607666, -0.01959090679883957, -0.00530650932341814, -0.06074902415275574, -0.12000271677970886, 0.059518031775951385, 0.020936129614710808, 0.03778476640582085, 0.10446103662252426, 0.07205809652805328, 0.001373356208205223, -0.08177132904529572, 0.018300237134099007, -0.004962609149515629, -0.02465706877410412, -0.07706548273563385, 0.06356017291545868, -0.11601515859365463, 0.05380551517009735, 0.037358179688453674, -0.12639281153678894, -0.08487246185541153, 0.04250234365463257, -0.039881836622953415, -0.057417646050453186, -0.10629939287900925, 0.09290998429059982, 0.009287916123867035, -0.0031708236783742905, 0.13939914107322693, 0.10880040377378464, -0.10648821294307709, 0.02965257130563259, 0.16048546135425568, -0.0063835857436060905, 0.06527536362409592, 0.09997712075710297, -0.07509389519691467, -0.12028512358665466, 0.003517352743074298, 0.10524316132068634, 0.1078781932592392, 0.06627847254276276, -0.05378517881035805, -0.0590987354516983, -0.07835653424263, 0.07917609810829163, 0.12647627294063568, 0.06872198730707169, 0.03283608332276344, 0.06476311385631561, -0.09296716004610062, 0.02737870253622532, -0.01860475167632103, 0.11209217458963394, -0.03489835932850838], [-0.05230673402547836, 0.009431535378098488, 0.03448330610990524, -0.059433866292238235, 0.025824595242738724, -0.050503846257925034, -0.1067623496055603, 0.04541846737265587, -0.07842669636011124, 0.021648099645972252, 0.010795590467751026, -0.020866889506578445, -0.05739748850464821, 0.09850934147834778, -0.05832499638199806, -0.028123898431658745, -0.07918375730514526, -0.03917204961180687, 0.009020743891596794, -0.03988388553261757, -0.09279221296310425, -0.10355697572231293, 0.04357669875025749, 0.10163659602403641, 0.03249122202396393, -0.04624940827488899, 0.05987067520618439, 0.04954957216978073, 0.09956907480955124, -0.08472030609846115, 0.1053277924656868, 0.08042352646589279, -0.05419550836086273, 0.08159121125936508, 0.10004632920026779, 0.06280111521482468, -0.03998303785920143, 0.015164198353886604, 0.01597185805439949, -0.023343384265899658, -0.07268602401018143, 0.18880486488342285, 0.008819244801998138, 0.00463336706161499, -0.05942167341709137, -0.006546186748892069, 0.010753138922154903, -0.01790447346866131, 0.024508507922291756, -0.021667322143912315, 0.007183128967881203, 0.06471545249223709, 0.07205595076084137, 0.07768473029136658, 0.07366674393415451, 0.087074875831604, -0.0015142112970352173, 0.14310868084430695, 0.013946154154837132, 0.04890108108520508], [-0.12687063217163086, 0.02544035203754902, 0.004244782496243715, -0.06337825953960419, -0.038563840091228485, -0.09236188977956772, -0.0722803920507431, -0.0066747963428497314, 0.047615788877010345, 0.059173837304115295, 0.05193353071808815, -0.09013079106807709, -0.03665356710553169, 0.02654336206614971, -0.03915081173181534, 0.058567214757204056, 0.028439031913876534, -0.03531072288751602, 0.0070524439215660095, 0.10359088331460953, -0.09160158038139343, 0.06849339604377747, 0.028356391936540604, -0.09898605197668076, 0.04751165211200714, 0.02210323140025139, -0.02819480374455452, 0.025983426719903946, 0.025870682671666145, -0.11624464392662048, 0.11915785819292068, -0.07938294112682343, 0.029372861608862877, -0.10741185396909714, 0.09586051851511002, -0.08595423400402069, 0.04736175015568733, -0.01738523133099079, 0.06336398422718048, 0.05785315856337547, 0.10831185430288315, 0.09043611586093903, -0.10605422407388687, -0.026160987094044685, -0.04997269809246063, 0.08089777082204819, -0.1046653464436531, -0.020552782341837883, 0.08773341029882431, 0.031403109431266785, -0.06611772626638412, -0.05543837323784828, 0.041235193610191345, 0.06841084361076355, 0.03363244608044624, 0.1288486272096634, 0.015298930928111076, -0.022477470338344574, 0.12711940705776215, 0.0043820906430482864], [-0.0750676766037941, -0.11629609018564224, -0.05138186737895012, -0.11754747480154037, 0.09381185472011566, -0.011963349767029285, 0.0169750414788723, -0.10267911851406097, -0.0066552977077662945, 0.06204133480787277, -0.04479297250509262, -0.13852359354496002, -0.09577754884958267, 0.030866650864481926, 0.0564618781208992, 0.009466161020100117, -0.016170939430594444, 0.04615497589111328, 0.08290993422269821, -0.06122090667486191, 0.008002396672964096, 0.009035276249051094, -0.06718741357326508, -0.1076400950551033, -0.06364597380161285, 0.05878443643450737, 0.028530245646834373, 0.043740421533584595, 0.04533148929476738, 0.0369047112762928, 0.10552921146154404, 0.048992905765771866, 0.021797388792037964, -0.14290353655815125, 0.003937954548746347, 0.13422125577926636, -0.027967141941189766, 0.05269843712449074, -0.1034989207983017, 0.1322542428970337, 0.09795185178518295, 0.07170850783586502, 0.05752810835838318, 0.055569685995578766, -0.03716839849948883, 0.15555211901664734, 0.14390535652637482, 0.07040712237358093, -0.016657087951898575, -0.10071870684623718, 0.06183694303035736, -0.0970713347196579, 0.02878168784081936, 0.09206876903772354, -0.05383261665701866, 0.08243786543607712, 0.054553162306547165, 0.0016098523046821356, -0.005830433219671249, 0.1288670003414154], [-0.050890278071165085, -0.21069477498531342, 0.05137621611356735, -0.05351678282022476, -0.0868358165025711, 0.02204805240035057, 0.007139473222196102, -0.16936826705932617, -0.041713155806064606, -0.11475148797035217, 0.07162119448184967, -0.06284604221582413, -0.12985068559646606, -0.018667539581656456, -0.05000567063689232, -0.1261608600616455, -0.08179960399866104, -0.059618111699819565, 0.04572527855634689, -0.014642983675003052, -0.044084060937166214, 0.06961186230182648, 0.1538221836090088, 0.0867825523018837, 0.06247836723923683, 0.13650397956371307, 0.03232423588633537, -0.056349966675043106, 0.006348905153572559, 0.06223457306623459, 0.0061444807797670364, -0.05320550873875618, -0.030748778954148293, -0.01319210883229971, 0.019157884642481804, -0.07101501524448395, 0.03802523761987686, 0.13226576149463654, 0.05811486765742302, 0.04511069878935814, 0.10942556709051132, 0.14587987959384918, 0.09090118110179901, 0.02055145613849163, 0.05507519096136093, 0.10350208729505539, 0.11333964765071869, 0.10574192553758621, 0.05255772918462753, 0.09447861462831497, -0.08228284120559692, 0.03139997646212578, 0.0853029116988182, 0.11422239989042282, 0.12113656848669052, 0.11134882271289825, 0.020442398265004158, 0.0631420761346817, 0.12033027410507202, 0.04541768133640289], [0.08001865446567535, 0.11359326541423798, 0.04551154747605324, 0.04037695378065109, -0.048394717276096344, 0.07826856523752213, 0.11688525229692459, -0.015964850783348083, -0.04177571460604668, 0.08391552418470383, 0.03601496294140816, -0.05530577152967453, -0.04767677187919617, 0.059886232018470764, -0.09205706417560577, -0.07892081141471863, 0.07383842021226883, 0.10890240967273712, 0.14277498424053192, 0.0698038786649704, 0.07627839595079422, 0.014791064895689487, 0.1045093834400177, 0.1361708790063858, 0.15867984294891357, 0.05437919870018959, 0.10713069140911102, -0.02342134341597557, -0.08415266871452332, -0.030218975618481636, 0.10339915752410889, -0.09038987010717392, -0.07292136549949646, 3.788879621424712e-05, -0.007783850189298391, -0.007885929197072983, -0.031711507588624954, 0.04251095652580261, 0.025261633098125458, 0.09764375537633896, -0.015134215354919434, 0.07201613485813141, -0.028897948563098907, 0.007232898846268654, -0.04468773305416107, -0.08588946610689163, -0.0442073792219162, 0.027180399745702744, -0.07022680342197418, -0.02666221372783184, -0.020846117287874222, -0.02957269735634327, -0.14926275610923767, -0.03265378624200821, -0.14028790593147278, -0.0261641014367342, -0.07799740135669708, 0.05067143961787224, 0.07006543129682541, -0.0576871894299984], [0.016479764133691788, 0.07518621534109116, -0.03639836609363556, 0.057478565722703934, 0.038228653371334076, 0.09204521775245667, -0.07792941480875015, -0.0667622834444046, -0.022155364975333214, -0.04238324239850044, 0.024838658049702644, -0.06160670518875122, 0.08324038982391357, -0.03745628520846367, -0.1024831086397171, 0.09857303649187088, 0.09550841897726059, 0.10530579090118408, 0.11459565162658691, 0.009830457158386707, -0.022667821496725082, -0.007411325350403786, 0.045681945979595184, 0.04374491423368454, -0.10923923552036285, 0.1460144966840744, 0.08222491294145584, -0.07741975784301758, 0.039736054837703705, 0.12535998225212097, 0.14307743310928345, -0.01701328158378601, -0.04420381411910057, -0.09968148916959763, -0.08662311732769012, -0.10371957719326019, 0.097251296043396, 0.12494642287492752, -0.0757255107164383, -0.0546230673789978, -0.006135431118309498, -0.12811459600925446, 0.05669747665524483, 0.02196672186255455, 0.001878988347016275, 0.03682609274983406, 0.05326925218105316, 0.059295859187841415, 0.05255070701241493, 0.016332870349287987, 0.06233819201588631, -0.07819384336471558, 0.049979712814092636, 0.08164405822753906, 0.080797478556633, -0.05566607043147087, 0.03860349580645561, -0.0898732841014862, 0.09679281711578369, 0.1130877286195755], [-0.028220269829034805, 0.12875996530056, 0.09807337075471878, -0.053274594247341156, 0.13502800464630127, 0.14366234838962555, -0.06593525409698486, -0.09377720206975937, 0.14301083981990814, 0.04728088155388832, 0.12464118748903275, -0.0016070445999503136, -0.0693746954202652, -0.05272924527525902, 0.0396808385848999, 0.09525153040885925, 0.03741936385631561, 0.15313252806663513, -0.06532568484544754, 0.02388901449739933, 0.002285821596160531, 0.1207047775387764, -0.01540440134704113, 0.08545203506946564, 0.044976238161325455, 0.019483735784888268, 0.15794382989406586, 0.020353009924292564, 0.1556759476661682, 0.05821991339325905, -0.0181230790913105, -0.1122344508767128, 0.09607145935297012, 0.00012965111818630248, -0.06961280107498169, -0.14633113145828247, 0.01508775632828474, 0.05690070986747742, -0.09535004198551178, 0.0396830178797245, 0.12319453060626984, 0.09246107190847397, -0.029894018545746803, -0.09894069284200668, -0.0015888919588178396, 0.04307877644896507, -0.07402637600898743, -0.135664165019989, -0.004881976637989283, -0.015200773254036903, -0.04408887028694153, 0.08238314837217331, -0.004120563622564077, 0.04881901666522026, -0.05261277034878731, -0.06469389796257019, 0.02275184355676174, -0.007835057564079762, 0.023365965113043785, -0.0247996486723423], [-0.051247864961624146, -0.06413274258375168, -0.09954523295164108, -0.08935672044754028, -0.11392206698656082, 0.04191124439239502, 0.038433611392974854, -0.07789666950702667, 0.07332954555749893, 0.03516116738319397, 0.006601985543966293, 0.1712150126695633, 0.14913779497146606, 0.04689798504114151, 0.051575373858213425, 0.12783081829547882, 0.09700964391231537, -0.01205343659967184, -0.08592471480369568, -0.15139652788639069, 0.011819398030638695, 0.0819084569811821, 0.09170585870742798, 0.05633264780044556, 0.16679073870182037, 0.11105711758136749, 0.15758828818798065, -0.12953251600265503, 0.027296707034111023, 0.03905539587140083, -0.07737620919942856, -0.04612104594707489, 0.013150729238986969, -0.13629211485385895, 0.055515922605991364, 0.03571992367506027, -0.026391131803393364, 0.05009894073009491, 0.03625918924808502, -0.09652692079544067, -0.0681801363825798, -0.1409420222043991, -0.08247247338294983, -0.009595233015716076, -0.017219753935933113, -0.025033876299858093, -0.0453033484518528, 0.06043318659067154, -0.089458167552948, 0.05234278365969658, -0.026067296043038368, 0.06053165718913078, 0.008964389562606812, 0.04636167734861374, 0.051565155386924744, 0.09205988794565201, 0.07674949616193771, -0.12038235366344452, 0.023228002712130547, -0.052199095487594604], [-0.08663994818925858, 0.04995665326714516, 0.09518958628177643, 0.07258635759353638, 0.1121886745095253, 0.035921141505241394, 0.12041062116622925, 0.032834891229867935, 0.12009276449680328, 0.0702536404132843, 0.12852174043655396, 0.12569834291934967, 0.1116710901260376, 0.10982868075370789, 0.11423729360103607, 0.06960849463939667, -0.05683455243706703, 0.08665081858634949, -0.016975903883576393, 0.054742734879255295, 0.07542280107736588, 0.12156037241220474, -0.12258493155241013, 0.12461786717176437, 0.08568345755338669, -0.02175363339483738, 0.10989664494991302, -0.03589469939470291, 0.05198540911078453, 0.03765992820262909, -0.07166514545679092, 0.03619638457894325, -0.09635716676712036, -0.09615177661180496, 0.09947560727596283, -0.07223278284072876, -0.0925329253077507, -0.07156339287757874, -0.13252998888492584, 0.05399581044912338, 0.020401418209075928, -0.06565840542316437, -0.10530208796262741, -0.017653919756412506, -0.08353253453969955, -0.031394898891448975, 0.10047730803489685, 0.09162633866071701, 0.06162504851818085, -0.05048571899533272, -0.10817211866378784, -0.08592893183231354, 0.09727106988430023, 0.0805009976029396, -0.030563805252313614, 0.022551946341991425, 0.01890278421342373, -0.05517720803618431, -0.020994875580072403, -0.03301680460572243], [-0.0485256090760231, -0.04592765122652054, -0.06055733934044838, -0.09882520139217377, 0.0004268075863365084, 0.11446048319339752, 0.02757927030324936, 0.05647682398557663, -0.03746083378791809, -0.08415358513593674, -0.1223590150475502, -0.006207975558936596, 0.08264115452766418, -0.08748923242092133, -0.04368988424539566, 0.11455527693033218, -0.02995080128312111, -0.041607342660427094, 0.10671810060739517, 0.012523597106337547, 0.07519306242465973, -0.11516775190830231, -0.11902230232954025, -0.07279452681541443, -0.000706485181581229, 0.10309448093175888, 0.017494145780801773, 0.020395580679178238, 0.07667043060064316, 0.10216943919658661, -0.061779752373695374, -0.052811916917562485, 0.10522279143333435, 0.06257175654172897, -0.045004088431596756, -0.11974602937698364, 0.03017168864607811, 0.05721336603164673, 0.021850628778338432, -0.07135961949825287, -0.03013213723897934, 0.0640484169125557, -0.05765152722597122, 0.11688019335269928, -0.0914018377661705, 0.0117495721206069, 0.08339809626340866, -0.01895051635801792, -0.121758833527565, 0.06507547199726105, 0.09238116443157196, 0.05804404243826866, -0.03873136267066002, 0.035372670739889145, -0.04297693818807602, 0.04178466275334358, -0.09570728242397308, 0.11990328133106232, -0.006717462092638016, 0.04871668666601181], [0.060774173587560654, -0.08696739375591278, -0.055485744029283524, 0.03886512294411659, 0.1074547991156578, -0.02539963833987713, -0.11388954520225525, -0.025328228250145912, 0.08233838528394699, 0.01096518337726593, 0.08115983009338379, -0.1189679279923439, 0.034090638160705566, -0.06011049076914787, 0.10471849888563156, -0.05590497702360153, -0.0536816343665123, -0.07301356643438339, -0.012470110319554806, -0.1182415708899498, -0.08152683079242706, 0.09859466552734375, -0.12702040374279022, -0.030008602887392044, -0.04433773085474968, -0.11830472201108932, -0.021266931667923927, -0.05027076601982117, -0.08316999673843384, -0.039529357105493546, 0.09149748086929321, -0.11051293462514877, -0.08590918034315109, -0.0073484699241817, 0.07893611490726471, -0.0021855097729712725, 0.12325890362262726, 0.12746839225292206, 0.0007037856266833842, 0.10004357993602753, 0.11562406271696091, -0.020664023235440254, 0.002574456622824073, -0.12785449624061584, 0.032938871532678604, -0.0341259203851223, -0.1056315079331398, 0.053998541086912155, -0.07887167483568192, 0.00014948223542887717, -0.002711741253733635, 0.12496490776538849, -0.10447295755147934, -0.005269583780318499, -0.11534970998764038, 0.05629957839846611, 0.01098781730979681, 0.10673912614583969, -0.059048742055892944, -0.11787883192300797], [0.05071451514959335, -0.010389580391347408, 0.09499282389879227, -0.0027314757462590933, -0.03349395468831062, -0.06637778133153915, 0.006521906238049269, -0.09948096424341202, -0.03852935507893562, 0.11895281821489334, 0.09839113801717758, -0.05449376255273819, 0.01540435291826725, 0.09689915925264359, 0.014399619773030281, 0.05073712021112442, -0.08488625288009644, 0.05797555297613144, -0.05676637589931488, -0.0667659342288971, 0.07855306565761566, -0.08609531819820404, -0.04431590065360069, -0.011351710185408592, 0.03793533518910408, -0.022803325206041336, -0.11930423229932785, 0.05919358879327774, -0.0946432501077652, -0.0205253753811121, 0.0854971632361412, 0.06025026738643646, 0.025198811665177345, -0.0324186235666275, 0.04549544304609299, 0.12522079050540924, 0.00670018931850791, 0.11785086244344711, 0.12553898990154266, 0.07392474263906479, 0.14122185111045837, 0.0033529868815094233, 0.017083538696169853, 0.02478470839560032, -0.025257546454668045, 0.09083080291748047, -0.008672975935041904, 0.06492377817630768, -0.06064866483211517, -0.011106396093964577, 0.04194139316678047, -0.08534356951713562, 0.05188051611185074, -0.02276175282895565, 0.0893823504447937, 0.076876699924469, -0.03490191325545311, 0.08488498628139496, 0.11297530680894852, -0.11189476400613785], [0.0839538648724556, 0.02358213998377323, 0.07501541078090668, 0.10737550258636475, 0.01390090025961399, 0.08986138552427292, 0.07034388929605484, 0.028338082134723663, -0.030215898528695107, -0.10768446326255798, -0.05680844560265541, 0.11821157485246658, -0.0037625590339303017, -0.05798400193452835, 0.09589996933937073, 0.08915218710899353, 0.022647850215435028, 0.07661538571119308, -0.1081969141960144, -0.018416596576571465, -0.013575095683336258, -0.058601006865501404, -0.03041989542543888, -0.1174747496843338, -0.035860031843185425, -0.06966891139745712, 0.12556783854961395, 0.07293450087308884, -0.056860122829675674, -0.08497489988803864, 0.11847735941410065, -0.11795750260353088, -0.026616942137479782, -0.11846563965082169, 0.0064584678038954735, -0.09225199371576309, 0.020588355138897896, 0.0069702016189694405, -0.09447834640741348, 0.07855609804391861, 0.040460530668497086, 0.0671394094824791, -0.008584410883486271, 0.0852300226688385, 0.01098498236387968, -0.057531457394361496, 0.10522231459617615, 0.04056960344314575, -0.1003800705075264, 0.027729764580726624, 0.09015009552240372, -0.0006720008095726371, 0.04594237729907036, -0.07278621196746826, 0.008025886490941048, -0.05244559049606323, 0.04458367079496384, -0.03636017441749573, -0.07028518617153168, 0.012922553345561028], [0.09115934371948242, -0.06172807887196541, 0.004508466459810734, 0.04346012696623802, 0.013348889537155628, 0.013485295698046684, 0.015048326924443245, 0.07972149550914764, 0.04595104977488518, 0.07850753515958786, 0.04226047545671463, -0.06008797883987427, -0.16714632511138916, -0.05610479786992073, -0.0030431330669671297, 0.06987933814525604, 0.05960424616932869, 0.011740578338503838, -0.034015409648418427, -0.10101544111967087, -0.0584285631775856, -0.06533297151327133, 0.00034879386657848954, 0.028653103858232498, -0.027573633939027786, 0.04232703521847725, 0.07049646228551865, -0.06705686450004578, 0.054446544498205185, 0.02422252856194973, -0.07684574276208878, -0.16969208419322968, -0.13395167887210846, -0.07402703166007996, -0.05580214038491249, -0.1162453293800354, -0.12512990832328796, -0.008605013601481915, 0.06165784224867821, 0.09031587094068527, 0.031957414001226425, 0.04199662059545517, 0.15864306688308716, 0.07075931876897812, 0.149855375289917, 0.2088799923658371, 0.16981039941310883, -0.09381776303052902, -0.15835224092006683, -0.036245040595531464, -0.0600353479385376, -0.010945156216621399, 0.05084174498915672, -0.047616906464099884, -0.010578511282801628, 0.10920935869216919, -0.09526415169239044, 0.018470581620931625, -0.0341927669942379, 0.037824515253305435], [0.05159999057650566, 0.11393363028764725, 0.04803162068128586, 0.07306426763534546, 0.14946193993091583, -0.0863967314362526, -0.04099263250827789, 0.0728742927312851, -0.05504449084401131, 0.14277590811252594, 0.08886637538671494, 0.0955955758690834, -0.10881746560335159, -0.01724027656018734, 0.03743419051170349, 0.0907890796661377, -0.060340236872434616, 0.11698244512081146, -0.1304040402173996, -0.030365323647856712, -0.12605135142803192, -0.024932188913226128, -0.10254315286874771, 0.010921120643615723, -0.04045040160417557, 0.1142410859465599, 0.07552216947078705, -0.013202653266489506, -0.005425024311989546, -0.014982309192419052, -0.07277365028858185, -0.02023143880069256, 0.13189849257469177, -0.05579989403486252, -0.11881852149963379, -0.02202150784432888, -0.11989306658506393, -0.0026562707498669624, 0.13641801476478577, -0.10603736340999603, -0.05821773782372475, 0.10781193524599075, 0.006120474077761173, 0.09439090639352798, -0.05342061445116997, 0.12149159610271454, 0.023070650175213814, -0.07993494719266891, -0.008106237277388573, -0.047429416328668594, -0.08949849009513855, -0.028611265122890472, 0.07152163237333298, -0.03888780251145363, -0.09890976548194885, -0.10720497369766235, 0.036845862865448, -0.03073696605861187, 0.08360946923494339, -0.07599515467882156], [-0.09680049866437912, 0.10413337498903275, 0.09595393389463425, 0.051205992698669434, 0.1520068198442459, 0.001412432175129652, 0.12253483384847641, 0.13224799931049347, -0.003712243400514126, 0.12504929304122925, 0.10014685988426208, 0.12540896236896515, 0.1139102354645729, 0.10326109826564789, 0.1524408906698227, 0.03636210039258003, 0.06055106222629547, -0.08699093014001846, 0.01935463771224022, 0.09907174855470657, 0.07835789024829865, -0.06249028816819191, 0.1279345154762268, 0.09767347574234009, -0.04280680790543556, 0.13145151734352112, 0.008509804494678974, -0.06752940267324448, 0.032659560441970825, 0.14435537159442902, -0.08580168336629868, 0.06639368087053299, -0.10950838774442673, -0.09244287014007568, -0.05115649849176407, -0.10638953745365143, 0.008378608152270317, 0.0571039579808712, -0.1031162440776825, -0.04474553093314171, 0.0711941197514534, -0.07699261605739594, 0.06039486825466156, -0.010865974240005016, 0.04088522866368294, 0.018711743876338005, 0.06917142122983932, -0.07106524705886841, -0.07348707318305969, 0.05072641372680664, 0.029300596565008163, -0.07879837602376938, -0.028132738545536995, -0.09000633656978607, -0.1135147362947464, 0.08899601548910141, -0.019756639376282692, 0.05712462216615677, 0.049435388296842575, -0.0020426460541784763], [0.05518446862697601, -0.07472474873065948, -0.08760496973991394, 0.10185844451189041, 0.03036952205002308, 0.07082348316907883, 0.002629414666444063, 0.08082939684391022, 0.05514749139547348, -0.10678789764642715, -0.09170354157686234, -0.02971971221268177, -0.057619743049144745, -0.09996127337217331, -0.043859828263521194, -0.027338547632098198, 0.031568121165037155, 0.054634466767311096, 0.03966503590345383, -0.04707964137196541, -0.10856589674949646, -0.12705716490745544, -0.06733809411525726, 0.06548924744129181, 0.07159993052482605, -0.08855056017637253, -0.049559641629457474, -0.07843109965324402, -0.07017486542463303, 0.009304084815084934, -0.07232542335987091, 0.0032127995509654284, -0.02636130340397358, 0.1232883632183075, 0.13786913454532623, 0.055057138204574585, -0.030956365168094635, 0.11249990016222, -0.09780984371900558, 0.06604097038507462, 0.10827909409999847, -0.07990927994251251, 0.13545358180999756, 0.09251126646995544, -0.010974753648042679, 0.019037973135709763, 0.05239158123731613, 0.012028436176478863, 0.12052688002586365, 0.09113990515470505, 0.14616824686527252, 0.031274985522031784, 0.07804197072982788, 0.10652358084917068, 0.1063661202788353, -0.08343299478292465, -0.020265616476535797, -0.06173771619796753, 0.08722486346960068, -0.052056144922971725], [-0.05971871316432953, 0.09093530476093292, -0.11341780424118042, -0.09026017040014267, 0.0177689790725708, -0.03621557354927063, 0.0853993222117424, 0.06016906723380089, -0.06211156025528908, -0.014486480504274368, -0.03087490238249302, -0.1368405669927597, -0.0774260014295578, -0.03399552404880524, -0.05689482018351555, 0.059384047985076904, -0.05232972279191017, 0.06126335635781288, 0.1254899650812149, -0.06727374345064163, -0.009086892008781433, 0.0773465558886528, -0.02938677929341793, 0.10961735993623734, 0.11986718326807022, -0.11661311984062195, -0.10781501233577728, 0.026161519810557365, -0.04806051030755043, -0.12346690893173218, -0.044213179498910904, 0.05178509280085564, -0.024963805451989174, 0.02986549586057663, 0.09033525735139847, -0.09237322211265564, 0.1125328466296196, -0.002484326483681798, 0.03779248520731926, -0.0779179260134697, 0.0714646428823471, 0.07653247565031052, -0.11316492408514023, -0.04443327337503433, -0.10251149535179138, -0.0009229409042745829, -0.050348617136478424, -0.0058656660839915276, -0.056304458528757095, 0.022006437182426453, -0.1375882625579834, 0.0718260109424591, -0.06269701570272446, 0.07096152007579803, 0.02408219315111637, 0.0675412118434906, -0.09760718792676926, 0.04959624633193016, 0.013325881212949753, 0.07161082327365875], [0.009518753737211227, -0.10995084047317505, -0.11136816442012787, -0.017054829746484756, -0.046458061784505844, -0.0577586330473423, 0.08334340900182724, -0.0523519292473793, -0.011859231628477573, 0.026565754786133766, 0.10744278132915497, -0.11107033491134644, 0.09751679003238678, -0.05374344810843468, -0.06682194769382477, 0.1306471973657608, 0.11151373386383057, 0.024944469332695007, 0.062015410512685776, 0.09237918257713318, -0.014940439723432064, -0.03963400423526764, -0.0556986927986145, -0.08598865568637848, 0.01871875301003456, 0.00392203638330102, 0.04305044189095497, 0.025355445221066475, -0.061955854296684265, 0.11046867072582245, -0.08701171725988388, -0.02074672095477581, -0.11341994255781174, -0.08562594652175903, 0.050944678485393524, -0.06690587848424911, 0.07504560053348541, -0.08970919996500015, -0.09666132181882858, -0.1250379979610443, -0.12033607065677643, 0.11503314971923828, -0.0025822988245636225, -0.04690217599272728, -0.04096550866961479, -0.11000126600265503, -0.08026032149791718, -0.004668070934712887, 0.09688913077116013, 0.016918884590268135, 0.0427531972527504, 0.10214469581842422, 0.1230831891298294, -0.09172772616147995, -0.07123484462499619, 0.054786209017038345, -0.006771947257220745, 0.00915520265698433, 0.08019198477268219, -0.04422614350914955], [0.06292310357093811, 0.010463397018611431, -0.12142390012741089, -0.0037322714924812317, -0.09098883718252182, -0.12406058609485626, 0.013093766756355762, 0.13661405444145203, -0.05429110303521156, -0.09005383402109146, 0.004731129389256239, -0.049903754144907, -0.04400418698787689, -0.016096342355012894, -0.11094263195991516, -0.07891422510147095, 0.086107037961483, -0.012446211650967598, -0.03446727618575096, -0.03455746918916702, -0.01414449978619814, 0.06113860011100769, -0.0841660276055336, -0.08379827439785004, 0.025057435035705566, -0.10753145813941956, -0.10283660888671875, 0.006132069043815136, -0.05196661129593849, -0.12135233730077744, -0.02553599514067173, -0.09950908273458481, -0.11204715818166733, -0.03592889383435249, 0.016093142330646515, -0.011659083887934685, 0.036225274205207825, -0.05983357131481171, -0.05690109729766846, -0.012521090917289257, 0.023619363084435463, -0.0009794755605980754, 0.05551578104496002, -0.03114967979490757, 0.0664033591747284, 0.1206478625535965, -0.02814071625471115, -0.01590016670525074, 0.09881342947483063, -0.09467311948537827, -0.005202685948461294, -0.11902280896902084, -0.09758089482784271, 0.13161782920360565, -0.09316250681877136, -0.0692896693944931, 0.062018658965826035, -0.03291720151901245, -0.12729868292808533, -2.3247463104780763e-05], [0.10758594423532486, 0.03812145069241524, -0.02302394062280655, 0.03919699788093567, -0.030360117554664612, -0.05649478733539581, -0.02558555081486702, 0.09950236231088638, 0.042109448462724686, 0.09654146432876587, 0.07451149076223373, -0.07179784029722214, -0.003265619045123458, 0.06159783527255058, -0.06647396087646484, 0.013053100556135178, -0.012386680580675602, 0.04283744469285011, -0.07010743021965027, -0.03836877644062042, 0.06300985813140869, -0.0966525748372078, 0.12620298564434052, -0.0011420499067753553, -0.11490780115127563, 0.026397833600640297, -0.04854295030236244, 0.09839550405740738, 0.15458224713802338, 0.10097058117389679, 0.05161676183342934, 0.04251633957028389, -0.06104666367173195, -0.04515039548277855, -0.10015123337507248, 0.06480412930250168, -0.06137598305940628, -0.02138405479490757, 0.11034473776817322, -0.06526431441307068, 0.17248807847499847, 0.054137520492076874, -0.021768391132354736, -0.07449685037136078, -0.1367989480495453, -0.10329700261354446, -0.0546591579914093, -0.05260459706187248, -0.06832778453826904, 0.03865997493267059, 0.05733810365200043, -0.06975452601909637, -0.0085175521671772, -0.08804366737604141, -0.050922099500894547, 0.06222943589091301, -0.06807153671979904, -0.06936554610729218, 0.06751293689012527, 0.018627088516950607], [-0.05392761155962944, 0.08028049767017365, 0.06447581946849823, 0.18990164995193481, 0.09157464653253555, 0.10094946622848511, 0.08474010974168777, 0.006715307477861643, 0.047510161995887756, 0.15665331482887268, 0.055528633296489716, 0.12639494240283966, -0.00701133580878377, 0.1617092490196228, 0.035090602934360504, 0.14417493343353271, 0.11461368948221207, -0.06775294989347458, 0.13211354613304138, -0.018367493525147438, 0.022492751479148865, 0.10743030160665512, 0.11632989346981049, -0.04569088667631149, 0.04128584638237953, 0.06476534157991409, 0.09511087089776993, 0.06727733463048935, 0.01921887882053852, 0.021305736154317856, 0.09002772718667984, 0.022293558344244957, -0.057814620435237885, -0.016921065747737885, 0.0064251115545630455, 0.056692834943532944, -0.00726157333701849, -0.08492439985275269, 0.12080945819616318, 0.05808556079864502, -0.08988423645496368, 0.035849153995513916, 0.06003415212035179, -0.02682918682694435, -0.055869799107313156, 0.06747104227542877, -0.03684529289603233, -0.06557178497314453, -0.06001776456832886, 0.13681910932064056, 0.043958794325590134, -0.1046137735247612, 0.002203496405854821, -0.09435204416513443, 0.05965794250369072, -0.10183702409267426, -0.14197330176830292, 0.0386994294822216, -0.06262922286987305, 0.05487069487571716], [-0.10025917738676071, 0.10404463857412338, -0.11098580062389374, 0.051010861992836, 0.08186274021863937, -0.01213582418859005, 0.07983645051717758, -0.11996869742870331, -0.016797488555312157, -0.056094925850629807, 0.06634751707315445, 0.08120089769363403, 0.027778737246990204, 0.04136702045798302, 0.02294788509607315, -0.07607437670230865, 0.0005083655123598874, 0.006915742065757513, -0.08207730948925018, -0.04867783561348915, 0.02434389479458332, 0.12209836393594742, 0.1274607628583908, -0.004014141391962767, -0.11162089556455612, 0.08886215090751648, -0.09053150564432144, -0.015137163922190666, 0.06270350515842438, 0.03909089416265488, -0.11734223365783691, 0.07166731357574463, -0.10167068243026733, -0.04620424285531044, -0.04216071963310242, 0.022845042869448662, -0.08581090718507767, -0.07998871803283691, 0.0886465311050415, 0.10151837021112442, -0.04820302128791809, -0.08058667182922363, -0.016476335003972054, -0.036971017718315125, -0.040290653705596924, -0.11030101031064987, 0.05019115284085274, -0.029035206884145737, 0.09574896097183228, -0.07999864220619202, -0.10057467967271805, -0.09073568135499954, 0.07279781252145767, -0.031805381178855896, -0.11108846962451935, 0.08568402379751205, 0.012795736081898212, 0.11909858137369156, 0.01643146201968193, 0.07835152745246887], [-0.11843018233776093, -0.060679033398628235, 0.10426992923021317, 0.011061231605708599, -0.08570993691682816, 0.1418733298778534, -0.06410615146160126, -0.10135892033576965, -0.09884421527385712, -0.015149567276239395, -0.030872877687215805, -0.10694842040538788, -0.12044589966535568, 0.008213667199015617, 0.03106766566634178, 0.024120943620800972, 0.06244765594601631, 0.08617056906223297, 0.12678341567516327, 0.011721288785338402, -0.048173315823078156, 0.042439110577106476, -0.06699882447719574, 0.08975721150636673, 0.12606938183307648, 0.08176402002573013, 0.12791705131530762, -0.04091508686542511, -0.07005897164344788, 0.06332328170537949, -0.011480249464511871, 0.025634923949837685, 0.09759214520454407, -0.10478589683771133, 0.011877310462296009, 0.08759677410125732, 0.004104476887732744, 0.0595545768737793, 0.0164149459451437, -0.05064370110630989, 0.0951775312423706, 0.09380337595939636, 0.023924974724650383, -0.004689894616603851, 0.026579085737466812, 0.035235293209552765, 0.02648966573178768, -0.12248395383358002, -0.015213888138532639, 0.00033109745709225535, -0.012770953588187695, 0.07114284485578537, -0.11761339753866196, -0.08778325468301773, 0.028295597061514854, 0.036922477185726166, -0.09042960405349731, -0.10974857211112976, -0.03074011206626892, 0.03755762055516243], [-0.02562100626528263, 0.07984664291143417, -0.022603297606110573, 0.1398606300354004, -0.08848351240158081, -0.09443683922290802, -0.06923879683017731, 0.08494105190038681, 0.06418924033641815, 0.052479539066553116, -0.020369453355669975, 0.12083601206541061, 0.041633088141679764, -0.04264799878001213, -0.0754166767001152, -0.045227911323308945, 0.05532492324709892, 0.07763777673244476, 0.0440094880759716, 0.0981345996260643, 0.07933543622493744, 0.049164846539497375, -0.0005207284120842814, -0.07430399954319, 0.06449422240257263, 0.06066977232694626, 0.07605879753828049, -0.012707921676337719, 0.10083631426095963, 0.1315060406923294, 0.029867785051465034, -0.115218386054039, -0.02724190428853035, 0.07150857150554657, 0.03423813357949257, -0.09078911691904068, -0.12321975827217102, -0.07922807335853577, 0.10185100883245468, 0.0010081820655614138, -0.12264153361320496, 0.05017327144742012, -0.09779839962720871, -0.0154164033010602, 0.1031254455447197, -0.12702853977680206, -0.09207896143198013, -0.05894242972135544, 0.0026993914507329464, -0.09088324010372162, 0.12341432273387909, -0.023077135905623436, -0.020925726741552353, -0.07257456332445145, -0.04427773132920265, -0.045305732637643814, -0.08262708783149719, 0.073893703520298, 0.047264471650123596, -0.05023450031876564], [-0.0884307250380516, 0.09834061563014984, -0.10769891738891602, -0.030955810099840164, -0.04509308934211731, -0.1125975027680397, 0.09015591442584991, -0.0074472008273005486, -0.017279671505093575, -0.09470568597316742, -0.10095328837633133, -0.11632101982831955, 0.019608717411756516, 0.10797156393527985, -0.0704246312379837, -0.12144731730222702, 0.020727332681417465, -0.12385834753513336, -0.03353215008974075, -0.05204935744404793, -0.08294165134429932, 0.09367622435092926, -0.08114597946405411, 0.08250749856233597, 0.02362540364265442, 0.0773731991648674, -0.026695890352129936, -0.08421474695205688, -0.09468208998441696, -0.02259771153330803, 0.03800157830119133, -0.08833344280719757, -0.08522327989339828, 0.06467977166175842, 0.09936556220054626, -0.020735127851366997, -0.07440636307001114, 0.06526238471269608, -0.06827876716852188, -0.03861889988183975, -0.09255383908748627, -0.04437156021595001, -0.040024951100349426, 0.08900084346532822, 0.029233545064926147, -0.009303619153797626, -0.025197871029376984, -0.10558323562145233, 0.11011043936014175, 0.0793195366859436, -0.06204022839665413, -0.07916926592588425, -0.015540394000709057, 0.10537481307983398, 0.04957478865981102, 0.07191545516252518, 0.1245538741350174, 0.07083165645599365, -0.12921106815338135, -0.07373210042715073], [0.06134962663054466, -0.03868759796023369, 0.04236974939703941, 0.050828397274017334, -0.10537154227495193, 0.07233107835054398, -0.11819051206111908, 0.06318532675504684, -0.07852671295404434, -0.016269123181700706, -0.031862493604421616, 0.13127687573432922, -0.05261283740401268, 0.06887193024158478, -0.018890954554080963, 0.01981273852288723, -0.0756029263138771, -0.017139971256256104, 0.05479287728667259, -0.09636639803647995, 0.14120157063007355, -0.09457718580961227, 0.0006136677111499012, 0.11690697818994522, 0.0686582550406456, 0.049610573798418045, -0.014267467893660069, -0.09040970355272293, -0.003952893428504467, 0.05474517121911049, 0.08587343245744705, -0.08129648119211197, 0.10026001930236816, 0.12874113023281097, 0.14306052029132843, -0.07364723831415176, -0.04763241484761238, 0.09679687023162842, 0.027385151013731956, 0.025831416249275208, -0.07497981190681458, -0.049777496606111526, -0.03411669284105301, -0.07327509671449661, -0.09509079158306122, 0.01518367137759924, 0.08678214251995087, -0.10373254865407944, 0.1007673591375351, 0.05428002402186394, -0.09933361411094666, 0.005737613420933485, -0.04544929042458534, -0.06504682451486588, -0.059637196362018585, 0.1125132143497467, 0.030079396441578865, -0.005355984903872013, 0.017084691673517227, 0.11965359002351761], [-0.0633467584848404, -0.03393169119954109, 0.09257376939058304, -0.09737290441989899, 0.03354823961853981, -0.1382487714290619, 0.07502931356430054, -0.06348153203725815, 0.06808708608150482, 0.019555697217583656, -0.12997779250144958, 0.07111679762601852, 0.1284443885087967, 0.07104912400245667, 0.018399355933070183, -0.11064929515123367, -0.10663416236639023, -0.1320958286523819, 0.051012273877859116, -0.11431203782558441, 0.06406376510858536, -0.0507676862180233, 0.08887370675802231, -0.028568724170327187, 0.042259104549884796, -0.04172690585255623, -0.04088402912020683, -0.11473379284143448, -0.09893834590911865, -0.049730200320482254, -0.06360848248004913, 0.031196536496281624, 0.07404672354459763, 0.09424219280481339, -0.06612090021371841, 0.07492342591285706, 0.11990167200565338, 0.1242278441786766, 0.0011711444240063429, 0.04431792348623276, 0.13431279361248016, 0.15875974297523499, 0.12228555977344513, 0.06659828126430511, 0.05048460513353348, 0.02002895623445511, -0.06305880844593048, 0.09294089674949646, 0.05664735287427902, 0.047033149749040604, 0.12290675938129425, 0.08717586100101471, -0.07985705137252808, 0.0024205835070461035, -0.008315527811646461, 0.020277874544262886, -0.008749431930482388, 0.07164882123470306, -0.05958237498998642, -0.09016227722167969], [0.02890847437083721, 0.007981295697391033, 0.08787407726049423, 0.10294906795024872, -0.11683978885412216, -0.01548398844897747, 0.05645562335848808, -0.03801104798913002, -0.13668881356716156, -0.11658782511949539, -0.036374300718307495, 0.006501472555100918, 0.09698659926652908, 0.059151194989681244, 0.11127125471830368, 0.1092303916811943, 0.04911894351243973, 0.042279887944459915, -0.07727482914924622, -0.027763627469539642, 0.07397923618555069, -0.024690663442015648, 0.1107611209154129, 0.017958438023924828, 0.06995536386966705, 0.0071516805328428745, 0.11936718970537186, -0.002967376494780183, 0.029969483613967896, 0.10706296563148499, -0.10704638808965683, -0.10097159445285797, -0.030724460259079933, -0.07905785739421844, -0.09603173285722733, -0.05594184249639511, -0.10979362577199936, 0.015797331929206848, 0.1081850528717041, 0.08734341710805893, 0.05914829671382904, -0.008045630529522896, -0.05872415006160736, 0.06373094767332077, 0.01020214706659317, 0.03604574501514435, 0.10560917109251022, -0.059127312153577805, -0.12061205506324768, 0.015453779138624668, -0.030739901587367058, 0.03433056175708771, -0.10833226889371872, -0.07373562455177307, 0.0784645527601242, -0.11293837428092957, 0.05971836298704147, 0.043827351182699203, -0.07028546929359436, 0.03986109048128128], [-0.05962613970041275, -0.07032138109207153, -0.09176844358444214, 0.13861651718616486, 0.07948053628206253, 0.04248383268713951, 0.00636591762304306, -0.045601774007081985, -0.1223335787653923, 0.03791032359004021, -0.06217353045940399, 0.12097039073705673, 0.127553790807724, -0.10449619591236115, -0.03553766384720802, 0.008285816758871078, -0.10570796579122543, 0.07070866972208023, -0.04008256644010544, 0.041730765253305435, 0.1021660640835762, 0.05744386836886406, 0.04032934084534645, -0.047036588191986084, 0.05224476382136345, -0.11813967674970627, 0.10348514467477798, 0.09919267892837524, 0.07344865798950195, 0.04888000339269638, -0.08773913234472275, -0.08499287068843842, 0.0821492075920105, 0.0630822405219078, 0.006925877649337053, -0.038588590919971466, 0.17520307004451752, 0.12607823312282562, -0.0780193880200386, -0.02419472113251686, 0.027513418346643448, -0.1057760939002037, -0.015107411891222, 0.02810419537127018, -0.06052820384502411, -0.054200343787670135, -0.06552684307098389, 0.14747752249240875, 0.1128106638789177, 0.07010256499052048, 0.05977937579154968, -0.0145522840321064, 0.0888432189822197, 0.05288473889231682, -0.07750063389539719, 0.006095456890761852, 0.007479857187718153, 0.13868093490600586, -0.10339928418397903, -0.0775592178106308], [-0.08917485922574997, 0.056887295097112656, -0.06410427391529083, -0.004541642498224974, 0.06826943904161453, -0.04516379535198212, 0.010421511717140675, -0.1279633641242981, -0.04345445707440376, -0.07148198038339615, 0.08306317776441574, -0.05212610587477684, -0.027530992403626442, 0.1027030274271965, 0.009337947703897953, 0.02450834959745407, 0.044196803122758865, 0.009420816786587238, 0.14119353890419006, 0.06493505835533142, -0.09106139838695526, 0.03547373041510582, 0.045319922268390656, 0.12084633857011795, -0.12047429382801056, -0.028611036017537117, -0.10138345509767532, -0.11934633553028107, -0.059949226677417755, 0.06417343765497208, -0.026413464918732643, -0.08318383991718292, 0.0421222485601902, -0.03913445770740509, 0.013513028621673584, 0.13226810097694397, 0.13023081421852112, -0.10669593513011932, -0.06579690426588058, 0.03564363345503807, 0.0716402679681778, 0.05130954831838608, -0.0736432746052742, 0.12630926072597504, 0.11720076948404312, 0.07834965735673904, -0.0823940709233284, -0.08716171979904175, 0.07555446773767471, -0.11865143477916718, -0.05172494798898697, -0.032969146966934204, -0.014263262040913105, 0.039763692766427994, 0.01584976352751255, -0.0015503654722124338, 0.07847783714532852, 0.0016984459944069386, 0.01878845877945423, -0.10409146547317505], [0.03421998396515846, -0.10128890722990036, -0.012489192187786102, -0.1339704841375351, -0.03108477219939232, 0.08983407914638519, 0.07571764290332794, 0.11120938509702682, -0.012469756416976452, 0.031030971556901932, -0.01053341943770647, 0.10384880751371384, 0.06994835287332535, -0.14554530382156372, 0.028030307963490486, 0.03722980618476868, 0.07280836254358292, 0.05703083053231239, -0.024528542533516884, 0.08182995021343231, -0.06369534134864807, -0.08726327121257782, 0.13682341575622559, 0.02646632120013237, -0.09776105731725693, -0.012660953216254711, -0.01122304517775774, 0.03127533569931984, 0.04370046406984329, 0.08913569897413254, -0.0847378596663475, -0.03643222153186798, 0.1090223416686058, 0.057029444724321365, 0.009952391497790813, 0.11018842458724976, 0.1094617173075676, -0.08418556302785873, 0.1281777173280716, -0.029468823224306107, -0.07724184542894363, -0.018872924149036407, 0.02834462933242321, -0.09318370372056961, -0.06665490567684174, -0.023750638589262962, 0.012358168140053749, 0.07667059451341629, 0.11783227324485779, 0.03643113002181053, 0.12663164734840393, 0.10764697194099426, -0.08556853234767914, 0.06975298374891281, 0.09247608482837677, 0.09175430983304977, -0.02172030694782734, -0.09210217744112015, -0.049235690385103226, 0.09286731481552124], [0.08056055009365082, -0.062403954565525055, 0.14636743068695068, 0.10182805359363556, -0.07868392765522003, -0.08758831769227982, 0.023834137246012688, 0.13083671033382416, -0.06793314963579178, -0.051685504615306854, 0.01151758898049593, 0.07512068003416061, -0.07619403302669525, -0.03530063480138779, 0.12807101011276245, 0.18753263354301453, -0.009808513335883617, 0.03209170326590538, 0.14127673208713531, -0.05631279572844505, 0.0193992517888546, 0.09697569161653519, 0.08565546572208405, -0.07238948345184326, 0.13633963465690613, -0.00024400280381087214, -0.08316214382648468, -0.05789119005203247, 0.055625349283218384, 0.11547833681106567, -0.07771902531385422, -0.021597635000944138, -0.07074825465679169, -0.026165451854467392, -0.040758345276117325, -0.053278736770153046, 0.07873159646987915, 0.017868157476186752, 0.013539076782763004, -0.09652493894100189, -0.12892644107341766, -0.08980602771043777, 0.006513422355055809, -0.0805930569767952, -0.016569701954722404, -0.06388241797685623, 0.06885062158107758, -0.048743631690740585, 0.006441458594053984, -0.08404868841171265, 0.053735408931970596, 0.09820149838924408, -0.1705629676580429, 0.09617970883846283, -0.016087159514427185, -0.04380585998296738, -0.014854111708700657, 0.08722379803657532, 0.02892131172120571, -0.05697236210107803], [0.028420913964509964, -0.04163293167948723, 0.06278672814369202, 0.08971989899873734, 0.0011142335133627057, 0.05002143979072571, 0.00643068877980113, 0.04941530525684357, -0.029822485521435738, 0.10135442018508911, 0.06787197291851044, 0.08662322908639908, 0.005029299762099981, 0.07773075997829437, -0.03826746717095375, 0.019861610606312752, 0.09077749401330948, 0.03183562681078911, 0.11678502708673477, 0.02123301662504673, 0.1289944350719452, -0.014971624128520489, 0.14417919516563416, 0.044116467237472534, 0.012810345739126205, -0.03508198633790016, 0.0500885546207428, 0.007772558368742466, -0.08407218754291534, 0.13467387855052948, 0.11447214335203171, -0.10011914372444153, -0.13891665637493134, -0.03000301867723465, 0.07702629268169403, -0.019753623753786087, 0.12878987193107605, 0.03821464255452156, -0.025044668465852737, -0.09870759397745132, 0.14265018701553345, 0.06669209897518158, 0.007920267060399055, -0.07507439702749252, -0.003845787374302745, -0.024754270911216736, -0.07357263565063477, -0.09063953906297684, -0.14748431742191315, 0.10537147521972656, -0.026889856904745102, 0.12120641022920609, 0.11149567365646362, 0.08310618996620178, 0.09445475041866302, 0.10511846840381622, -0.06644779443740845, 0.01873922348022461, -0.00030174123821780086, -0.06390978395938873], [0.0848362147808075, -0.07638373970985413, 0.07680846750736237, -0.1327696144580841, 0.0025120393838733435, 0.10722509771585464, -0.12092901021242142, -0.13820987939834595, -0.049614693969488144, 0.06393702328205109, 0.12697859108448029, -0.030511979013681412, -0.04730837792158127, -0.0840023010969162, 0.0906609371304512, 0.05711095780134201, -0.060367804020643234, 0.08046386390924454, -0.05492660775780678, 0.04558289796113968, -0.0148283950984478, 0.03301031515002251, 0.01887745037674904, -0.12467382848262787, 0.07139202207326889, -0.10333273559808731, -0.13171783089637756, 0.08713541179895401, -0.10428667068481445, -0.052457306534051895, -0.1214509829878807, -2.323978151252959e-05, 0.0578838586807251, 0.004402195103466511, -0.025792071595788002, 0.1335880309343338, -0.0331152118742466, -0.05680689588189125, 0.038094185292720795, 0.11283797770738602, -0.09595472365617752, 0.054296448826789856, -0.05227858945727348, -0.07920315116643906, 0.014018560759723186, 0.11066538840532303, 0.01807834580540657, -0.07439996302127838, -0.06370091438293457, 0.10718818008899689, 0.11521437019109726, 0.03895140811800957, 0.0959426537156105, -0.0058595482259988785, 0.06773726642131805, -0.02255016565322876, 0.024648090824484825, 0.10638155043125153, -0.08261407911777496, 0.08986478298902512], [0.013788626529276371, -0.07099542021751404, -0.08921588957309723, 0.026868896558880806, 0.08403496444225311, 0.07689813524484634, -0.10396082699298859, -0.04378029331564903, 0.12012587487697601, 0.1655823141336441, -0.1189979687333107, 0.034705620259046555, 0.11085303127765656, 0.13532714545726776, -0.052154943346977234, 0.07663620263338089, 0.10771682113409042, 0.09337993711233139, -0.07981014996767044, -0.03633582964539528, 0.06093214079737663, -0.12027141451835632, -0.004169803578406572, 0.09637900441884995, -0.06367819756269455, -0.05471557006239891, 0.15304668247699738, -0.0687163844704628, -0.06361322849988937, 0.10292638838291168, 0.12944261729717255, -0.014786369167268276, -0.0369427427649498, -0.006813644431531429, -0.02532246522605419, -0.00887302029877901, -0.01756022870540619, -0.04512505233287811, -0.043120548129081726, 0.0011547742178663611, 0.06122777611017227, -0.09848891943693161, 0.003986579366028309, -0.04460675269365311, -0.042170848697423935, -0.00388505170121789, -0.02083718776702881, -0.1205553188920021, 0.09026485681533813, -0.03348512575030327, -0.02220575325191021, 0.03705848380923271, -0.01125468872487545, -0.050154849886894226, -0.04295892268419266, 0.009443901479244232, 0.04770065099000931, 0.003389759222045541, 0.045313529670238495, -0.07135728001594543], [0.04950032755732536, -0.12429580092430115, 0.07600698620080948, -0.005684416275471449, -0.029309891164302826, -0.11849920451641083, -0.12666667997837067, 0.10526642203330994, -0.047594841569662094, -0.03657256439328194, -0.09863065183162689, 0.02190152183175087, -0.12211039662361145, 0.019951539114117622, -0.06798233091831207, -0.023955460637807846, -0.03650639206171036, 0.06620069593191147, 0.027692649513483047, -0.04273195564746857, 0.08090686053037643, -0.03313276916742325, 0.09392505139112473, -0.06723836809396744, -0.097061388194561, -0.10548804700374603, -0.0024162509944289923, -0.05630642920732498, 0.11818209290504456, 0.11719080060720444, 0.00618981895968318, -0.019380170851945877, -0.09064546227455139, 0.13142363727092743, 0.11223863065242767, -0.05978578329086304, -0.017032189294695854, 0.1342138797044754, 0.21244823932647705, 0.03279659524559975, -0.06746409833431244, -0.014067023992538452, 0.12752355635166168, -0.0612710602581501, 0.034024666994810104, 0.018703926354646683, 0.07344380021095276, -0.0062953513115644455, -0.08614612370729446, 0.12932038307189941, 0.028227822855114937, 0.11533039063215256, 0.02350766956806183, 0.08845873177051544, -0.08720332384109497, -0.06491240113973618, -0.02777065522968769, 0.1062825545668602, 0.06323910504579544, -0.056437235325574875], [-0.024488190189003944, -0.0823429673910141, -0.11402250081300735, -0.11048483103513718, -0.09252332150936127, -0.04435736685991287, -0.018188292160630226, 0.05761467665433884, 0.0882754921913147, -0.09778328984975815, -0.13156555593013763, 0.04592033848166466, 0.1306336671113968, -0.03173237293958664, 0.05840994790196419, 0.1152459979057312, -0.02069954201579094, -0.04865036904811859, 0.011738689616322517, 0.05745581164956093, -0.001097145606763661, 0.10026202350854874, -0.12485257536172867, 0.09969064593315125, -0.10833483189344406, -0.024416720494627953, 0.0820566713809967, 0.026747213676571846, -0.07198649644851685, 0.0851765125989914, -0.126161590218544, 0.06454016268253326, -0.0819690003991127, 0.027657445520162582, 0.057623621076345444, -0.05331354960799217, -0.046122804284095764, 0.032595690339803696, 0.00951035413891077, -0.07906972616910934, 0.06755140423774719, 0.053913701325654984, -0.08633820712566376, -0.09921430796384811, -0.07887979596853256, 0.02351481094956398, 0.10901245474815369, 0.1310075968503952, -0.0738075003027916, 0.06873753666877747, 0.01568691059947014, 0.03989763557910919, -0.018458757549524307, 0.060725390911102295, -0.13168640434741974, 0.06934380531311035, 0.03661097213625908, -0.06419321894645691, 0.0027595697902143, 0.025791391730308533], [0.0358089841902256, -0.10761018097400665, 0.10708680003881454, -0.11847911030054092, 0.021935265511274338, 0.07634014636278152, 0.05473821237683296, -0.0005506694433279335, 0.06675954163074493, 0.0205297339707613, -0.04817398265004158, -0.11588241904973984, -0.12006193399429321, -0.044065866619348526, -0.11171934753656387, -0.08909064531326294, -0.1082971915602684, -0.13044041395187378, 0.03770269453525543, 0.1115376427769661, 0.10656502097845078, 0.10563308745622635, 0.06316815316677094, -0.05029255151748657, -0.014126411639153957, -0.03333430737257004, 0.05412578210234642, -0.12386422604322433, -0.062022510915994644, -0.0656299740076065, 0.1249212846159935, 0.04086582362651825, 0.0588194839656353, 0.06097733601927757, -0.0751311331987381, -0.03650374710559845, -0.10390125960111618, -0.0361279658973217, -0.048296377062797546, -0.03078623302280903, 0.043034955859184265, -0.06402434408664703, 0.0335104875266552, 0.08829578757286072, 0.020275579765439034, -0.026085272431373596, 0.07429400086402893, -0.09477904438972473, 0.04777505621314049, 0.09706080704927444, 0.0887766182422638, 0.07129552960395813, 0.038958415389060974, 0.06056273728609085, -0.07678026705980301, -0.02947533316910267, 0.009481294080615044, 0.06985417753458023, -0.012778990902006626, 0.024039337411522865], [-0.00018082823953591287, 0.025697335600852966, -0.022621924057602882, 0.12576252222061157, -0.010903909802436829, -0.025159401819109917, -0.008702665567398071, 0.08304601162672043, 0.07808060944080353, 0.034801185131073, 0.05859029293060303, 0.11308024823665619, 0.04698380455374718, 0.10920462012290955, -0.0012502777390182018, -0.03885319083929062, -0.09011784195899963, 0.11611969023942947, -0.04515739902853966, 0.021068314090371132, -0.047046199440956116, -0.04689441993832588, 0.1324489414691925, 0.025296326726675034, -0.01409191358834505, 0.09283188730478287, 0.05408331751823425, -0.011703697964549065, 0.12130861729383469, -0.06718073785305023, 0.06005901098251343, -0.02558712288737297, 0.09569969773292542, -0.07128654420375824, -0.08220373094081879, -0.10989756882190704, -0.09766168147325516, -0.028556743636727333, -0.08352351933717728, 0.06992386281490326, 0.110577292740345, -0.06461972743272781, 0.1015511006116867, 0.0213825274258852, -0.1096186414361, 0.023257948458194733, 0.0910317450761795, -0.03460108861327171, 0.06925038248300552, -0.07016032934188843, 0.013776802457869053, 0.20213106274604797, 0.03166680037975311, 0.119853176176548, 0.1067747250199318, 0.022510124370455742, 0.026508066803216934, -0.0011920881224796176, -0.0507623627781868, -0.07046172767877579], [0.004129414912313223, 0.0693913921713829, 0.03054722212255001, 0.01314384676516056, 0.095635786652565, -0.13998021185398102, -0.1028503030538559, 0.043332189321517944, 0.010833177715539932, 0.034232720732688904, 0.09836140275001526, -0.032082706689834595, 0.09718947112560272, -0.09064188599586487, -0.022081999108195305, -0.10916642099618912, 0.05427728220820427, 0.053485263139009476, -0.021626083180308342, 0.0006389210466295481, -0.0008788007544353604, 0.030599771067500114, 0.04784134030342102, -0.11387597024440765, -0.01701626367866993, -0.06263583898544312, 0.0839119702577591, 0.033650171011686325, 0.06612719595432281, -0.07351411879062653, -0.06629740446805954, 0.13525046408176422, -0.01840326189994812, 0.044293541461229324, -0.09385208785533905, 0.10013924539089203, 0.09100794047117233, 0.11468247324228287, 0.06988339871168137, 0.09878428280353546, 0.02666589245200157, -0.09634999930858612, -0.05775550752878189, -0.0066574751399457455, -0.0660615861415863, 0.0223624799400568, 0.07213239371776581, 0.045512452721595764, 0.0442986935377121, -0.005345563869923353, -0.06212061271071434, 0.024080540984869003, -0.010547918267548084, -0.0779571458697319, -0.009614981710910797, -0.04959065839648247, -0.01638721115887165, 0.03861537575721741, 0.10361795127391815, -0.11830677092075348], [0.002147810300812125, -0.10800252854824066, 0.011331458576023579, 0.08773957192897797, -0.11956010013818741, -0.12823709845542908, -0.07610567659139633, -0.006447783671319485, 0.01759922504425049, -0.0012033793609589338, -0.057840488851070404, -0.06046927347779274, -0.09610174596309662, -0.07134490460157394, 0.09980793297290802, 0.1141355112195015, 0.11225628107786179, 0.06983140856027603, -0.052194271236658096, -0.06701536476612091, 0.03806542605161667, -0.06813515722751617, -0.09301687777042389, 0.09787651151418686, -0.12134301662445068, -0.07982516288757324, -0.08818671107292175, 0.10265001654624939, 0.10946838557720184, -0.12368646264076233, -0.06590697914361954, -0.0024982141330838203, 0.016599295660853386, -0.03814339637756348, 0.0015720637748017907, -0.032161470502614975, 0.11335171014070511, -0.0364554263651371, -0.08454401791095734, -0.11372660845518112, 0.07033606618642807, -0.08395423740148544, -0.07705019414424896, 0.11231118440628052, 0.048850949853658676, 0.07817420363426208, 0.08231917768716812, 0.012036269530653954, -0.06575088948011398, -0.09002953767776489, -0.009413987398147583, -0.09520780295133591, -0.03765055164694786, -0.09739556908607483, 0.07798638194799423, -0.08490259945392609, -0.07061849534511566, -0.12172607332468033, -0.019738076254725456, 0.11802837997674942], [0.08412616699934006, -0.1575212925672531, -0.026063954457640648, -0.07194557040929794, -0.09771952778100967, 0.09819315373897552, -0.09256406873464584, -0.12526452541351318, 0.028046192601323128, -0.05137697979807854, -0.04360319301486015, 0.10135053098201752, 0.05049005523324013, -0.13740968704223633, -0.03810791298747063, 0.06433294713497162, 0.03059103526175022, 0.003859287826344371, -0.04843046888709068, 0.0757816806435585, -0.07592245936393738, 0.11803513765335083, 0.04340657219290733, -0.02376466430723667, -0.019249694421887398, 0.014364107511937618, 0.03129401430487633, -0.0470166951417923, 0.007430720143020153, 0.14372220635414124, 0.0822243019938469, 0.16878822445869446, 0.014247585088014603, 0.013239885680377483, 0.01972077041864395, 0.0707627534866333, 0.10117457807064056, 0.041977740824222565, -0.06537841260433197, 0.1545831263065338, 0.1624000072479248, 0.11235306411981583, -0.11617578566074371, 0.07105447351932526, -0.020526740700006485, -0.083110012114048, 0.08055440336465836, -0.004217549227178097, 0.08173403143882751, -0.03445516899228096, 0.07223105430603027, 0.19227036833763123, 0.10090342164039612, -0.032105930149555206, -0.025763122364878654, -0.09955122321844101, 0.09128382802009583, 0.04941309988498688, -0.028043312951922417, 0.10404310375452042], [-0.08587843179702759, -0.017018577083945274, 0.01969081349670887, -0.13606785237789154, 0.08571762591600418, 0.0737888291478157, 0.0837702825665474, -0.11388136446475983, 0.04591889679431915, 0.12211824208498001, -0.07351718097925186, -0.019182046875357628, -0.017202872782945633, 0.06826569885015488, -0.06769511103630066, 0.09443280100822449, -0.11325689405202866, -0.005281949415802956, -0.05853995308279991, 0.03690270334482193, -0.050310105085372925, -0.12355414032936096, 0.10737483203411102, -0.05787116661667824, -0.048757050186395645, -0.1138400211930275, -0.12271822243928909, 0.07837613672018051, -0.06359419971704483, 0.046524565666913986, -0.01682058349251747, 0.05855059623718262, 0.02011221833527088, 0.06455310434103012, -0.12724341452121735, -0.06962272524833679, 0.11937332898378372, -0.0555148608982563, 0.08217330276966095, -0.06424476206302643, -0.0887731984257698, -0.10509873181581497, 0.11082322150468826, 0.093116894364357, -0.08186992257833481, 0.022087378427386284, -0.03494910150766373, -0.04371703043580055, -0.011171785183250904, -0.08068821579217911, -0.05123136192560196, 0.007563901599496603, -0.025212271139025688, -0.0467628538608551, 0.02520316280424595, 0.024490542709827423, 0.10870569199323654, -0.035726435482501984, 0.0029107879381626844, 0.050706882029771805], [0.08363979309797287, -0.02725539728999138, 0.01100888755172491, 0.0013647220330312848, 0.015629315748810768, -0.009240425191819668, -0.06484561413526535, -0.11363065987825394, 0.1220695972442627, -0.03436831012368202, -0.06525232642889023, -0.09581522643566132, -0.016888244077563286, 0.01741601713001728, -0.05965637043118477, 0.046264637261629105, -0.09369736909866333, 0.019183646887540817, -0.05392611771821976, -0.08599391579627991, -0.06498502194881439, -0.005375441629439592, 0.04412439092993736, -0.08892554044723511, -0.08570659160614014, 0.060712940990924835, 0.06176796182990074, 0.05326852202415466, -0.05424974486231804, 0.04642948880791664, -0.0656159445643425, 0.16395317018032074, 0.04832325130701065, 0.11695118248462677, 0.0878569558262825, 0.1497877538204193, 0.15924914181232452, 0.12605950236320496, 0.09484712034463882, 0.0972520038485527, -0.0096640195697546, 0.05721011385321617, 0.10446593165397644, -0.14283126592636108, -0.10174405574798584, 0.04784125089645386, 0.08062507957220078, -0.06516809016466141, 0.05256030336022377, 0.09720297157764435, 0.060002848505973816, 0.010874571278691292, 0.12981581687927246, 0.11996151506900787, 0.028094656765460968, -0.08156290650367737, 0.04785242676734924, -0.0012627149699255824, 0.06570076197385788, -0.0827399492263794], [-0.08676968514919281, 0.09174681454896927, 0.12867334485054016, -0.005972775164991617, 0.08844760805368423, -0.11326021701097488, 0.04541536048054695, 0.034432634711265564, -0.05528129264712334, -0.1082562804222107, -0.1221100464463234, -0.06540009379386902, 0.10393460839986801, 0.061503589153289795, -0.018696632236242294, 0.0189238041639328, -0.003763684071600437, 0.10439374297857285, 0.07776731997728348, 0.05129248648881912, 0.015591616742312908, 0.017986180260777473, -0.006090791430324316, -0.09145190566778183, 0.08728361874818802, 0.12766548991203308, -0.014278494752943516, -0.05102962628006935, 0.05062178894877434, 0.04558729752898216, 0.10904725641012192, -0.06472673267126083, 0.01978006400167942, -0.022400079295039177, -0.023227140307426453, -0.061177439987659454, 0.0816337913274765, 0.08982213586568832, -0.014431898482143879, 0.044733062386512756, -0.0023187068291008472, 0.03467896580696106, 0.00446834322065115, 0.12185927480459213, 0.09833566099405289, -0.017557859420776367, -0.01699409820139408, 0.0240638330578804, 0.11829999834299088, 0.11284129321575165, 0.09959109872579575, -0.03641686215996742, 0.04551379755139351, -0.004993567708879709, -0.05455763265490532, 0.05876040831208229, 0.07115320861339569, 0.03179542347788811, -0.04269029200077057, -0.11331456154584885], [0.0824069082736969, -0.036424942314624786, 0.05687123164534569, 0.0677446722984314, 0.10552718490362167, 0.08929615467786789, -0.1380385160446167, 0.021116169169545174, 0.07949010282754898, 0.013431978411972523, -0.10075018554925919, -0.0950348749756813, -0.08038163185119629, -0.02450186014175415, -0.07916479557752609, -0.018880974501371384, 0.0768507644534111, 0.04639088362455368, -0.1079414039850235, -0.014868317171931267, 0.0840548649430275, -0.06858613342046738, 0.009731817990541458, -0.0710952952504158, -0.05092434957623482, -0.0654420331120491, -0.04971163719892502, -0.021558482199907303, -0.09069778770208359, 0.057638801634311676, 0.05129024013876915, 0.052273526787757874, -0.059755995869636536, -0.020076120272278786, 0.06794149428606033, -0.11095113307237625, 0.16412177681922913, -0.07472527027130127, -0.04799020290374756, 0.014527320861816406, 0.1277908831834793, -0.09207702428102493, 0.07664763182401657, -0.10736133903265, -0.12283574789762497, -0.011911769397556782, -0.013636758551001549, -0.06205214560031891, -0.008203919976949692, -0.02486729808151722, 0.026180602610111237, -0.06189970672130585, -0.08810039609670639, -0.03174535930156708, -0.02889675833284855, 0.04436369985342026, 0.0034962333738803864, -0.028211623430252075, -0.031408682465553284, -0.04783085733652115], [0.007445069961249828, -0.10565122961997986, 0.0503101609647274, 0.057391125708818436, 0.013103147968649864, -0.05492119491100311, 0.025138311088085175, 0.009864677675068378, 0.05978086590766907, -0.07522221654653549, 0.116274893283844, 0.031143290922045708, -0.06094290316104889, -0.04293016716837883, -0.0708751305937767, 0.05890342593193054, 0.07413648813962936, 0.11022701859474182, 0.11650775372982025, -0.036062709987163544, 0.06957386434078217, -0.10801055282354355, 0.11131884157657623, -0.007909122854471207, 0.020860444754362106, 0.09420562535524368, 0.042220983654260635, -0.09986000508069992, 0.10763856768608093, -0.04352141171693802, 0.06669570505619049, 0.09426657110452652, 0.0005563875893130898, 0.09142744541168213, 0.02298498898744583, 0.10523758083581924, -0.12637513875961304, -0.024211039766669273, 0.0444752499461174, -0.08361581712961197, -0.0869380384683609, -0.07919365912675858, 0.07080324739217758, 0.11088641732931137, -0.025759901851415634, 0.07733632624149323, -0.04179684817790985, -0.0004708186024799943, -0.10687408596277237, -0.05231691524386406, -0.01926681213080883, 0.08762624114751816, -0.09301350265741348, -0.014959890395402908, -0.07545651495456696, 0.1005038470029831, 0.13723713159561157, -0.08729735761880875, -0.020983168855309486, 0.014556575566530228], [0.013429410755634308, 0.06486451625823975, -0.057944707572460175, 0.061143938452005386, 0.05167090892791748, 0.08704550564289093, -0.092939093708992, -0.01785723865032196, 0.006352344527840614, -0.04053858295083046, -0.03068573772907257, -0.005816956050693989, -0.12515993416309357, -0.11505959182977676, 0.039124757051467896, -0.0612650141119957, -0.04204956814646721, 0.10376446694135666, 0.10667324811220169, 0.00468908715993166, 0.0988808274269104, -0.09598065167665482, -0.0826752707362175, 0.020775267854332924, -0.02719559147953987, 0.08539174497127533, 0.11432454735040665, 0.012203486636281013, -0.06117691844701767, -0.07382456213235855, 0.11014540493488312, -0.0599287673830986, 0.06801164895296097, -0.03610501438379288, 0.08014798909425735, -0.048799045383930206, -0.09092901647090912, -0.040423355996608734, -0.020050672814249992, 0.08671093732118607, 0.051402632147073746, -0.02630677819252014, 0.033555109053850174, -0.011392803862690926, -0.11833634972572327, -0.029773984104394913, -0.023105377331376076, -0.06870628893375397, 0.08030256628990173, -0.08359694480895996, -0.08871173113584518, -0.08218490332365036, 0.04479535296559334, 0.09974782913923264, -0.06060710549354553, 0.12324585765600204, -0.116633340716362, -0.01999528519809246, -0.10589762777090073, 0.08061469346284866], [-0.008278916589915752, -0.05669356882572174, -0.01950278878211975, -0.06979043036699295, 0.15519091486930847, -0.1098509281873703, -0.03709156811237335, -0.05064431205391884, -0.06337206810712814, -0.04425577074289322, -0.0015789942117407918, 0.16333253681659698, 0.13786572217941284, -0.10746514797210693, -0.058006588369607925, -0.007390368264168501, -0.00152106792666018, -0.12577980756759644, -0.10880199074745178, -0.04727949574589729, -0.037239283323287964, -0.01741296984255314, -0.03993203118443489, -0.062258943915367126, 0.00464570801705122, -0.13769111037254333, 0.008875668048858643, 0.0002471689076628536, -0.030736098065972328, -0.09124103933572769, -0.07315950840711594, -0.02176651544868946, -0.028420189395546913, 0.06359075754880905, 0.010635421611368656, -0.03407062590122223, -0.05396835133433342, 0.14149877429008484, 0.1594623327255249, -0.05538560822606087, -0.08841916173696518, -0.07784418016672134, -0.0005877385847270489, -0.008193154819309711, -0.15151892602443695, -0.04978467896580696, 0.049322787672281265, 0.08969047665596008, -0.025532934814691544, 0.12293054163455963, -0.05373799055814743, -0.04258795827627182, 0.05962681025266647, -0.04539510980248451, -0.11134479194879532, 0.01297359261661768, 0.01963101513683796, 0.1251775473356247, 0.10483440011739731, 0.06859159469604492], [-0.13319329917430878, 0.04381178691983223, 0.13155405223369598, -0.028401367366313934, 0.06907712668180466, -0.05556989833712578, -0.10171787440776825, 0.054441168904304504, 0.07552284747362137, -0.0751512199640274, 0.04490000009536743, -0.04995577409863472, 0.06892246752977371, 0.02648468129336834, -0.05992146208882332, -0.10720828920602798, -0.05888453125953674, 0.12559626996517181, 0.11637040972709656, -0.036705177277326584, 0.12250292301177979, 0.08070440590381622, -0.001170646515674889, 0.08224926143884659, -0.12161596119403839, -0.010135328397154808, 0.10225950926542282, -0.04600362107157707, -0.1125330775976181, -0.1272987276315689, -0.042075853794813156, -0.061166033148765564, -0.1167018711566925, 0.02676926739513874, 0.04434870928525925, 0.07782425731420517, 0.025159506127238274, -0.09411337971687317, -0.10974781215190887, 0.02306373231112957, -0.08536511659622192, 0.07646334916353226, 0.11847290396690369, 0.05263343080878258, -0.06618152558803558, -0.0018510788213461637, 0.04188789799809456, 0.07215112447738647, -0.08954408019781113, 0.14129547774791718, -0.08229869604110718, 0.10539771616458893, -0.10636454820632935, -0.018802179023623466, -0.0036781602539122105, -0.09553253650665283, 0.042749542742967606, 0.05109245330095291, 0.10464213043451309, 0.08732561022043228], [-0.03778012841939926, 0.0008286502561531961, 0.063407763838768, 0.0753990113735199, 0.08280614018440247, -0.08197657763957977, -0.029057884588837624, 0.08293954282999039, 0.13480405509471893, -0.08398064225912094, 0.012664901092648506, -0.13265156745910645, -0.09868520498275757, 0.07545478641986847, -0.06686771661043167, -0.04449661821126938, 0.04896966740489006, 0.037545084953308105, 0.04095849767327309, 0.07228820025920868, -0.09525858610868454, -0.11267246305942535, -0.01822424679994583, 0.06274466216564178, 0.09232543408870697, 0.049499500542879105, -0.0915137305855751, 0.00951308012008667, 0.036628738045692444, 0.1278114765882492, 0.11443960666656494, 0.022599395364522934, -0.008564241230487823, 0.024004284292459488, 0.10024020075798035, 0.0637371838092804, -0.015555464662611485, -0.11630191653966904, -0.079824298620224, -0.049277834594249725, 0.1371881067752838, -0.06034339219331741, 0.02333097904920578, -0.07845929265022278, 0.09691248834133148, -0.005385095719248056, -0.06366441398859024, -0.021394653245806694, 0.07489965111017227, 0.01561990287154913, 0.04214675724506378, 0.06281159818172455, 0.08423492312431335, 0.041654959321022034, 0.016874589025974274, 0.07541371136903763, 0.01139048207551241, -0.08615182340145111, 0.11577010154724121, -0.00866104569286108], [-0.007306658197194338, -0.09724672138690948, -0.07963808625936508, 0.10881760716438293, 0.048412397503852844, -0.0594400130212307, -0.004317419603466988, 0.03835310414433479, -0.019665788859128952, -0.05788544937968254, 0.04464946314692497, 0.008805576711893082, 0.07344181835651398, 0.030148237943649292, 0.14158989489078522, -0.07236789911985397, 0.03601853922009468, -0.058792926371097565, -0.08896953612565994, -0.04727564752101898, -0.05920281633734703, -0.11338570713996887, 0.044277504086494446, -0.023307252675294876, 0.05384647101163864, 0.08025658875703812, -0.0352059006690979, -0.061863694339990616, -0.11737576127052307, -0.04258725419640541, -0.05630495026707649, -0.08525075018405914, -0.1076020747423172, 0.1283637285232544, -0.028575249016284943, 0.07794874906539917, 0.05240312218666077, -0.0386815182864666, -0.05590937286615372, 0.0682937502861023, -0.10712709277868271, 0.10797835141420364, 0.050027117133140564, 0.008578778244554996, -0.0411553792655468, -0.0835072472691536, 0.1060519814491272, 0.07425995171070099, -0.0923987478017807, 0.10880149155855179, 0.0646793395280838, -0.1338501274585724, -0.1108747199177742, -0.12045714259147644, -0.11759252846240997, 0.08196177333593369, 0.09481711685657501, -0.12329810112714767, -0.03972160443663597, -0.008750605396926403], [-0.10462507605552673, -0.07850370556116104, 0.09452693909406662, 0.1213965192437172, 0.16825911402702332, 0.11205936968326569, 0.000583492626901716, -0.112411268055439, -0.13201290369033813, 0.1390838623046875, 0.08486854285001755, -0.10711859166622162, 0.04317731782793999, 0.04820378124713898, -0.03161003813147545, 0.1319202333688736, 0.0951378345489502, -0.013901807367801666, 0.018616609275341034, -0.05556780844926834, -0.09859278053045273, 0.0960959643125534, -0.1489175409078598, -0.057293850928545, 0.08735708147287369, -0.08429943770170212, -0.09269264340400696, -0.12841859459877014, -0.04083067923784256, -0.10847267508506775, 0.0370151661336422, -0.02939644083380699, 0.0630875900387764, 0.10456922650337219, 0.0321054607629776, 0.13112588226795197, -0.0433555506169796, 0.0010351573582738638, 0.0819612666964531, 0.1387070268392563, -0.03394246846437454, 0.07047755271196365, 0.0996067002415657, -0.05928575620055199, 0.048550914973020554, 0.04960259795188904, -0.04834804683923721, 0.07426254451274872, -0.11545000970363617, -0.08026838302612305, 0.1408320516347885, -0.06316635757684708, -0.029563385993242264, 0.054390668869018555, -0.016799714416265488, 0.03164035454392433, 0.06949114054441452, -0.1340407282114029, -0.05810174345970154, 0.055869415402412415], [0.1036132425069809, -0.023942695930600166, 0.026564650237560272, 0.11250191926956177, -0.0074136448092758656, 0.11268273741006851, 0.09202852845191956, 0.08088865131139755, 0.048348620533943176, 0.054526202380657196, -0.07856211811304092, 0.029270783066749573, -0.034684158861637115, -0.05808006227016449, 0.10854829102754593, 0.08547123521566391, -0.08978929370641708, -0.033226966857910156, -0.11322493106126785, -0.11858610063791275, -0.006394288502633572, 0.11457111686468124, 0.027834385633468628, 0.07039783895015717, 0.06201931834220886, -0.05564732849597931, 0.08520296216011047, -0.06611136347055435, 0.050035350024700165, -0.0011308927787467837, 0.07649606466293335, 0.09822919219732285, -0.07440139353275299, 0.009875317104160786, 0.11650247871875763, 0.059108566492795944, -0.07146864384412766, 0.14255984127521515, -0.023256296291947365, -0.12157571315765381, -0.07026838511228561, 0.052344467490911484, 0.11812258511781693, -0.09388396143913269, -0.01057550311088562, -0.01977456733584404, -0.10602327436208725, -0.008088537491858006, -0.024160876870155334, -0.0324801430106163, -0.004428753163665533, 0.0834687203168869, 0.06778232008218765, 0.04233495146036148, -0.10374073684215546, -0.06086932495236397, -0.03352748230099678, 0.09034876525402069, -0.01246295589953661, 0.09606681019067764], [0.14976255595684052, -0.006051850039511919, 0.12152286618947983, -0.043598372489213943, 0.048946067690849304, 0.08475133031606674, -0.06799119710922241, -0.07919332385063171, 0.07896030694246292, -0.012261326424777508, -0.09083390235900879, -0.10339478403329849, 0.045610859990119934, 0.06882841885089874, 0.11528284847736359, 0.01335015706717968, -0.09461252391338348, -0.010977757163345814, 0.08067423105239868, -0.10166395455598831, 0.0034186006523668766, 0.015055356547236443, 0.07268740236759186, 0.11329859495162964, -0.12202034890651703, -0.02538485638797283, 0.0746828094124794, 0.05490924045443535, -0.1043018028140068, 0.0408925898373127, 0.06080915406346321, 0.005483635701239109, -0.09837837517261505, -0.08380644768476486, -0.03157239034771919, 0.04127766564488411, -0.08154186606407166, 0.07472727447748184, 0.07816513627767563, -0.058179959654808044, 0.12921331822872162, 0.11003046482801437, 0.018690424039959908, -0.06911671906709671, -0.06750452518463135, -0.03463117778301239, -0.11421013623476028, 0.14108115434646606, -0.050143349915742874, 0.01775919273495674, 0.09021314978599548, 0.005722089670598507, -0.10553136467933655, -0.06619622558355331, 0.11447884142398834, 0.019027700647711754, 0.05455855652689934, 0.06412412971258163, 0.000635472300928086, 0.09050536155700684], [0.18128401041030884, -0.13585856556892395, 0.014268454164266586, -0.03958803787827492, -0.07939766347408295, 0.003890087129548192, -0.055612001568078995, -0.03723976016044617, 0.0005223231273703277, -0.0252943467348814, 0.059731993824243546, 0.10289274901151657, -0.10108726471662521, 0.05060070380568504, 0.025829235091805458, -0.0014123342698439956, -0.012658121064305305, 0.023111267015337944, -0.13336074352264404, -0.024519257247447968, 0.017240021377801895, -0.04652810096740723, 0.02937145158648491, -0.1572217345237732, -0.013014762662351131, -0.038906920701265335, 0.02951435185968876, -0.1493399292230606, -0.07048939913511276, -0.03119741939008236, -0.1205812618136406, 0.07255855202674866, 0.12856924533843994, 0.0064620571210980415, 0.05789411813020706, -0.010803893208503723, 0.03963065892457962, -0.05596349760890007, 0.14162591099739075, 0.11304783821105957, 0.11619164049625397, 0.020909201353788376, 0.011387848295271397, 0.11450852453708649, 0.16616438329219818, 0.11978867650032043, 0.011618289165198803, -0.021571319550275803, -0.002180297626182437, 0.11306824535131454, -0.03651013225317001, 0.0823761373758316, -0.06707818806171417, 0.137654110789299, 0.04410421475768089, 0.09957419335842133, 0.03755322843790054, 0.06461238861083984, 0.1565363109111786, 0.0445781834423542]], "layer_1.bias": [-0.14864856004714966, 0.08650423586368561, 0.1317930519580841, 0.12890221178531647, 0.10802508890628815, 0.056819748133420944, 0.007737853564321995, -0.06993326544761658, 0.1419040560722351, 0.05053003877401352, 0.08798667043447495, 0.08716417849063873, 0.0014658751897513866, 0.11641699820756912, -0.002430329564958811, 0.0846579521894455, -0.06495517492294312, 0.11389774084091187, 0.0602569580078125, 0.06405387073755264, -0.09147249162197113, 0.15977975726127625, 0.13789403438568115, 0.13323676586151123, 0.06366506963968277, -0.10876093804836273, 0.06977417320013046, 0.006368337664753199, 0.11541257798671722, 0.02173016220331192, -0.06773778796195984, -0.08663288503885269, -0.09053222090005875, 0.002244893927127123, -0.053935542702674866, 0.0936855673789978, -0.031075604259967804, 0.046578943729400635, 0.12081778794527054, 0.05770505592226982, 0.11876857280731201, -0.0929410308599472, 0.019092487171292305, 0.08036942034959793, 0.0988173633813858, 0.11331216990947723, 0.030736327171325684, -0.1283201277256012, -0.10960803925991058, 0.09208095073699951, 0.046934422105550766, -0.03557226434350014, -0.12406052649021149, -0.0912272185087204, 0.010747808963060379, -0.10448545962572098, 0.01886734552681446, -0.08591000735759735, -0.11732864379882812, -0.09233494848012924, 0.12313801795244217, -0.027116447687149048, -0.07779644429683685, 0.09920812398195267], "layer_2.weight": [[-0.03937570005655289, -0.03973499312996864, 0.09181584417819977, 0.05402279645204544, -0.11774598807096481, 0.11054841428995132, 0.09984071552753448, 0.08171933889389038, 0.08515147119760513, 0.03231601417064667, -0.08197161555290222, -0.08462777733802795, -0.09348498284816742, 0.03709854558110237, -0.09783145785331726, 0.03480204939842224, -0.046549100428819656, -0.11869006603956223, -0.10749676078557968, -0.011300461366772652, -0.0943310558795929, 0.08985239267349243, -0.027463402599096298, -0.037984687834978104, -0.09155802428722382, 0.012624434195458889, -0.020800206810235977, 0.030522482469677925, -0.11746060848236084, -0.04064657539129257, 0.03401800990104675, -0.012445539236068726, -0.07454682141542435, 0.0774192363023758, 0.0975588783621788, -0.06504404544830322, 0.08371156454086304, 0.0035713068209588528, -0.11070043593645096, -0.11936483532190323, 0.059417854994535446, -0.11934597790241241, -0.09725970029830933, 0.0033165072090923786, -0.11931000649929047, 0.035775382071733475, -0.05780767276883125, -0.06408340483903885, 0.11861243098974228, 0.11760981380939484, 0.008990577422082424, -0.050552599132061005, 0.08101437985897064, 0.05549117922782898, 0.11389957368373871, 0.07259290665388107, -0.037782542407512665, -0.10355836153030396, -0.009183130227029324, -0.02241862192749977, -0.036927565932273865, -0.025276541709899902, 0.016203992068767548, 0.07771419733762741], [-0.04615398496389389, 0.08689092844724655, 0.11902279406785965, -0.08241863548755646, -0.016363022848963737, 0.017295164987444878, -0.04339228570461273, 0.07729628682136536, -0.05051075294613838, 0.05766522139310837, -0.035811807960271835, 0.011554189957678318, -0.051375262439250946, 0.11944341659545898, -0.015580037608742714, 0.07469034194946289, -0.01834816485643387, -0.020183546468615532, 0.04627913609147072, -0.06848054379224777, 0.10296834260225296, 0.00465042470023036, 0.073532335460186, 0.0023506709840148687, 0.04293027147650719, 0.04919447377324104, 0.01745765469968319, 0.04886114224791527, 0.13673950731754303, -0.04876171052455902, -0.04450581222772598, 0.08956858515739441, 0.03517356142401695, -0.07471293956041336, -0.022374406456947327, 0.08774494379758835, -0.05335153639316559, 0.10607734322547913, -0.090907022356987, -0.1011500284075737, 0.07397354394197464, 0.07239755243062973, -0.00805941503494978, 0.13262641429901123, -0.03542197123169899, -0.07492714375257492, -0.03767530247569084, -0.11285410821437836, 0.11680369079113007, -0.14198966324329376, 0.04065718129277229, -0.08339446783065796, 0.05849255621433258, -0.012579566799104214, -0.018914302811026573, -0.04001520946621895, 0.016405612230300903, -0.10046939551830292, 0.10503032058477402, -0.014927885495126247, 0.06467048078775406, -0.011887935921549797, -0.11610346287488937, -0.07101798057556152], [0.07717745751142502, 0.08836658298969269, 0.10355782508850098, 0.1472979336977005, -0.06569923460483551, -0.006428242195397615, 0.00011037017247872427, -0.108403779566288, 0.0254364050924778, -0.10983850061893463, -0.029199395328760147, 0.1327114701271057, -0.001318271504715085, 0.14951921999454498, 0.11089197546243668, 0.05160894617438316, 0.029443424195051193, 0.08118277043104172, -0.03443692997097969, -0.04057935252785683, -0.0777786523103714, -0.10526145249605179, -0.015670545399188995, 0.08031118661165237, -0.02474450320005417, -0.07080302387475967, -0.005938156973570585, 0.10204984992742538, 0.13440699875354767, -0.06901487708091736, -0.11135848611593246, 0.020864212885499, 0.09906673431396484, -0.13451246917247772, -0.0047732749953866005, -0.012258276343345642, -0.10827195644378662, -0.0009516722057014704, 0.046502772718667984, -0.07844087481498718, 0.10925775021314621, 0.01787177100777626, -0.0205073319375515, 0.04767056927084923, -0.012034738436341286, -0.03218824416399002, 0.12161953002214432, -0.1017141044139862, 0.11306605488061905, -0.05880529060959816, -0.0925748273730278, 0.04161158576607704, 0.11358651518821716, -0.039446912705898285, 0.12226743251085281, 0.03650001063942909, 0.048538509756326675, 0.09140042215585709, 0.07548697292804718, -0.06719129532575607, -0.12912917137145996, -0.06136694923043251, 0.017409993335604668, 0.008157425560057163], [-0.10180020332336426, -0.06049736216664314, -0.0963376984000206, 0.12480702996253967, -0.043133314698934555, -0.1057165265083313, -0.12112383544445038, -0.02734556794166565, -0.09323626011610031, -0.027296366170048714, -0.058969154953956604, -0.05766008794307709, -0.04696742817759514, -0.00678293127566576, -0.08481058478355408, -0.030774036422371864, 0.07437484711408615, -0.0964968353509903, 0.09276752918958664, -0.023516450077295303, 0.021145988255739212, -0.05261048302054405, -0.08060801774263382, 0.08587947487831116, 0.05292341858148575, 0.09440934658050537, -0.09346355497837067, -0.06708408892154694, 0.06100108101963997, -0.12450799345970154, 0.06575776636600494, -0.050924152135849, -0.08947698771953583, -0.014081490226089954, -0.021441206336021423, 0.06774533540010452, -0.00044838525354862213, 0.019100625067949295, -0.06327304989099503, 0.016570473089814186, -0.11330065876245499, -0.10316100716590881, 0.05774642154574394, -0.022170979529619217, -0.005968253593891859, -0.06794312596321106, -0.007093414664268494, -0.004368699621409178, -0.12232501804828644, 0.09406398236751556, -0.023989543318748474, -0.07533331960439682, 0.04918079078197479, 0.01802566647529602, -0.08029335737228394, -3.536525400704704e-05, -0.11191178858280182, 0.018818631768226624, -0.04346349835395813, -0.03060762584209442, -0.03848973661661148, 0.033671747893095016, 0.07547320425510406, 0.06138535216450691], [0.11965665221214294, -0.10297398269176483, 0.04211767390370369, -0.04560393840074539, -0.03931356966495514, 0.04403446242213249, 0.027996614575386047, 0.05202355608344078, -0.04390411823987961, -0.0142087172716856, 0.06366992741823196, 0.0816567987203598, -0.08828335255384445, 0.09246837347745895, -0.07799562811851501, -0.021572524681687355, -0.023477070033550262, 0.0986022874712944, 0.0511966273188591, 0.04917177930474281, 0.05515172705054283, 0.05189954489469528, 0.025348639115691185, 0.07836824655532837, -0.07899254560470581, -0.0977439358830452, -0.09874129295349121, -0.02766100876033306, -0.09128810465335846, -0.07837244123220444, -0.015213033184409142, 0.01985684409737587, 0.07417304813861847, 0.012699947692453861, -0.025361130014061928, 0.10720599442720413, -0.0012101175962015986, -0.020133985206484795, -0.047030605375766754, -0.09778094291687012, 0.038325436413288116, -0.11332464218139648, -0.09425372630357742, 0.04868843033909798, 0.10953105986118317, -0.09006045758724213, -0.10143467038869858, -0.0069887954741716385, 0.04684531316161156, 0.04498905688524246, -0.09289080649614334, -0.06729009747505188, 0.07159854471683502, -0.00979640893638134, -0.09866929799318314, -0.09273726493120193, 0.08183549344539642, -0.03770897909998894, 0.002408028580248356, -0.10656740516424179, -0.0726001188158989, -0.039307888597249985, -0.020546870306134224, 0.10097908228635788], [0.001401554443873465, -0.016273410990834236, -0.02539672516286373, 0.03701513260602951, -0.1274857223033905, 0.07410746812820435, 0.07882361114025116, 0.018499672412872314, 0.10344358533620834, -0.12259390950202942, 0.08730475604534149, -0.10999615490436554, 0.04315279424190521, -0.09587816148996353, -0.07960722595453262, 0.06297394633293152, 0.08878016471862793, -0.10450845211744308, -0.09319964796304703, 0.08955367654561996, 0.0196541715413332, -0.05294165015220642, 0.12500540912151337, -0.05904495343565941, -0.01788906753063202, 0.08974549174308777, 0.0012651938013732433, -0.06274834275245667, 0.03758776932954788, 0.08451362699270248, -0.09135551005601883, 0.07465760409832001, -0.03664812073111534, 0.01365031860768795, -0.015162438154220581, -0.09371238201856613, 0.11332949250936508, -0.14694249629974365, 0.1327531635761261, 0.09852185845375061, 0.12732987105846405, -0.014530637301504612, -0.013352833688259125, -0.009375267662107944, 0.022299572825431824, 0.047027379274368286, 0.10601215809583664, -0.05969327315688133, -0.08033984154462814, 0.050920724868774414, -0.11403647810220718, -0.10472138226032257, -0.0036176335997879505, 0.022248845547437668, 0.025652678683400154, 0.07663946598768234, -0.0568547248840332, -0.011185234412550926, -0.055032577365636826, 0.0047742282040417194, -0.0530601441860199, -0.0808536559343338, -0.12034936249256134, 0.048845358192920685], [-0.028130585327744484, -0.11678055673837662, -0.07535099983215332, -0.09314136207103729, -0.0742519199848175, -0.09223955869674683, -0.07117186486721039, -0.02320595271885395, -0.04176750034093857, 0.09643545746803284, 0.13073666393756866, -0.06383993476629257, 0.11159216612577438, -0.046221084892749786, 0.046003445982933044, 0.11336860060691833, 0.09549041837453842, 0.046776071190834045, 0.11483785510063171, -0.01494888961315155, 0.07056164741516113, 0.0021422049030661583, 0.06484117358922958, -0.10064257681369781, -0.0296220351010561, -0.12125644832849503, 0.01664513535797596, 0.060029663145542145, -0.01883009448647499, -0.008716121315956116, -0.09446223825216293, 0.0557931587100029, 0.04164709150791168, -0.00017590055358596146, -0.033988937735557556, 0.10559523105621338, 0.12789525091648102, 0.05398505926132202, 0.09310300648212433, 0.11533647030591965, -0.10441179573535919, -0.08004079759120941, -0.12638185918331146, -0.08025238662958145, 0.06551503390073776, -0.04792973771691322, -0.07398003339767456, -0.017592469230294228, 0.09793093055486679, -0.06253358721733093, -0.08867774158716202, -0.10295582562685013, 0.039689209312200546, 0.0334271602332592, 0.04255644232034683, -0.07871807366609573, 0.056906890124082565, 0.056402187794446945, 0.049011215567588806, 0.05271080881357193, 0.0014572766376659274, -0.1191873699426651, 0.12412365525960922, -0.07344350218772888], [0.07144733518362045, 0.057985205203294754, 0.027717048302292824, -0.030176980420947075, 0.10426821559667587, 0.0697651207447052, 0.08482664078474045, 0.07245416939258575, 0.14039446413516998, 0.03840545937418938, 0.056787263602018356, -0.07301400601863861, -0.09242518246173859, -0.0791516900062561, -0.1358860433101654, -0.15864437818527222, -0.07256290316581726, -0.018209189176559448, -0.08333329111337662, 0.08415809273719788, -0.053691014647483826, 0.004925473127514124, 0.03916953504085541, 0.03130839392542839, 0.040105078369379044, -0.0588393472135067, 0.07005501538515091, 0.05536269396543503, -0.043521154671907425, -0.10603036731481552, 0.0390692874789238, 0.09461146593093872, 0.048062097281217575, 0.0611751452088356, -0.008713210001587868, -0.045766595751047134, 0.14929822087287903, -0.06809636205434799, 0.06035739183425903, 0.04570041596889496, 0.0704244002699852, 0.07537870854139328, -0.016634859144687653, 0.04720254987478256, 0.12191590666770935, 0.002854823600500822, -0.03174153342843056, 0.028610043227672577, 0.11402427405118942, 0.08700767159461975, -0.09946584701538086, -0.021678345277905464, 0.10814670473337173, 0.12105895578861237, 0.06262555718421936, -0.11651243269443512, 0.06046271696686745, 0.004103526007384062, 0.054064422845840454, -0.013690459541976452, -0.1673482060432434, 0.08489111810922623, 0.10659036040306091, 0.1373251974582672], [0.042946722358465195, 0.10443318635225296, 0.09020619094371796, 0.017284074798226357, -0.10926960408687592, -0.09434819966554642, -0.08240067958831787, 0.10882334411144257, 0.017747214064002037, -0.08201133459806442, -0.1267119199037552, 0.08837946504354477, -0.015595141798257828, 0.04415810853242874, 0.15759576857089996, 0.06055590137839317, 0.060068562626838684, -0.011108879931271076, -0.004905476700514555, -0.06708704680204391, -0.12143735587596893, 0.11035121232271194, 0.09138477593660355, 0.1061510294675827, -0.0876813530921936, 0.03297995403409004, 0.06842036545276642, 0.04282917454838753, 0.11850268393754959, -0.06133824959397316, -0.04929327592253685, 0.022363368421792984, 0.04034564271569252, -0.16110388934612274, 0.01202416606247425, 0.11935899406671524, 0.01557933073490858, -0.000592161261010915, -0.07177310436964035, 0.16108857095241547, 0.04219438135623932, 0.03279075026512146, 0.029941605404019356, -0.09347578883171082, -0.06312602013349533, 0.11636273562908173, -0.0384228453040123, 0.0052941362373530865, -0.027193374931812286, -0.08386988192796707, -0.07770635187625885, -0.0009392948122695088, -0.013589524663984776, 0.009080505929887295, 0.004973996430635452, -0.037812694907188416, 0.04847448691725731, 0.007608705200254917, -0.08606527745723724, -0.10450293123722076, 0.050468847155570984, 0.11661909520626068, 0.014755875803530216, 0.054668307304382324], [-0.10745149850845337, -0.12211261689662933, -0.08111776411533356, -0.04226185008883476, -0.06291580200195312, -0.034539591521024704, 0.010097170248627663, 0.05650739744305611, -0.0288716908544302, -0.11419686675071716, -0.05180302634835243, -0.08914043754339218, 0.03356415405869484, 0.062107399106025696, 0.017076482996344566, 0.00710867578163743, -0.08358700573444366, -0.07424154877662659, 0.10024183243513107, -0.0856776013970375, 0.022111926227808, -0.07778172194957733, -0.00841157604008913, 0.0010825995123013854, 0.07471717149019241, -0.06187836453318596, 0.016672467812895775, -0.1085515022277832, 0.11467698216438293, 0.03577854484319687, 0.06583903729915619, -0.05076630041003227, -0.09949555993080139, 0.01523197814822197, 0.04910048842430115, -0.04190346226096153, -0.01754796877503395, 0.053193751722574234, 0.10631149262189865, -0.12454503029584885, -0.09003357589244843, 0.09061209112405777, 0.09230416268110275, 0.1095973327755928, 0.07102984935045242, -0.10819850862026215, 0.08776353299617767, -0.1093672439455986, -0.1128920242190361, -0.07032579928636551, 0.050786711275577545, 0.027989068999886513, -0.08933069556951523, 0.09351735562086105, -0.03824429214000702, 0.05986207351088524, -0.0743781179189682, 0.04613954573869705, 0.11178901791572571, -0.014075037091970444, -0.08272936195135117, -0.016136331483721733, 0.09421000629663467, 0.09932025521993637], [-0.002780814189463854, 0.07878538221120834, 0.1157677173614502, 0.10768608748912811, -0.0354134738445282, -0.012741999700665474, -0.08212466537952423, -0.018499042838811874, 0.11851691454648972, 0.041821710765361786, -0.01530932541936636, 0.039365027099847794, -0.08709624409675598, 0.060643307864665985, -0.026196593418717384, 0.008779163472354412, -0.02184479683637619, 0.06330522149801254, -0.08692652732133865, -0.06086276099085808, -0.08073826134204865, -0.05698942020535469, 0.0003883961762767285, 0.10423342138528824, 0.046072475612163544, -0.04685751348733902, 0.11786413192749023, 0.026117555797100067, 0.022703155875205994, -0.11626780033111572, 0.08759543299674988, -0.021757345646619797, -0.027762755751609802, 0.005623671226203442, -0.08660539984703064, -0.04621140658855438, -0.0075474889017641544, 0.07295015454292297, -0.06354477256536484, -0.00555037334561348, -0.10403621941804886, -0.019849717617034912, -0.013185413554310799, 0.09827033430337906, 0.08892615884542465, 0.10811294615268707, 0.03330285847187042, 0.0691247209906578, 0.03773229569196701, 0.025506336241960526, -0.048067547380924225, -0.014384768903255463, -0.06685446202754974, 0.09246478974819183, 0.010204234160482883, 0.0224781334400177, 0.09039994329214096, 0.06923174113035202, -0.10546176880598068, -0.007713635452091694, 0.06972630321979523, 0.07381955534219742, 